-0.7159848	-0.4341931	-0.5158656	-0.3929167	-0.19921024	-0.29008096	0.039370745	-0.23401713	-0.19225138	0.3705711	-1.3049717	3.033457	-0.33216223	-0.20727955	-1.1854688	-0.7717977
0.54063183	-0.10195957	-0.4218959	-0.018411499	0.2917536	-0.17745206	-0.8179525	1.2045738	-0.07970119	-0.037452694	-0.45569822	1.0226595	-1.0166777	0.40615326	-0.6833898	-1.0739789
0.63986784	0.14600426	-0.2946005	-0.5060962	-0.49268147	-0.45432687	0.17004839	0.9396827	0.32401302	0.15845619	-0.71269625	0.60961115	0.54087543	0.36021823	-0.80511606	-0.18591526
-0.34835726	-0.010666586	-0.017883657	0.04189108	0.21282732	-0.03855633	-0.12277478	-0.31850275	-0.15594257	-0.26534382	-0.26849997	0.4231918	0.12276599	-0.050475072	-0.40707502	-0.09589201
-0.6994779	0.43493855	-0.5087632	-0.64742583	0.006760045	-0.56686634	0.17141064	-0.28288203	0.62343705	0.043635186	0.3385421	-0.09349243	0.823427	0.35893956	-0.23191337	-0.06811513
0.8820819	-0.26255888	0.20012394	-0.4921517	-2.429496	-0.1481398	1.596924	0.8137507	0.24879919	0.7870135	-1.0188397	0.6165177	1.3419074	-0.58522063	-0.24427643	1.5339503
0.14385734	-0.008020533	-0.24495971	-0.20289792	-0.13842711	-0.23323715	-0.0014035468	0.41045976	0.20966086	0.31695798	-0.17125322	0.42009038	-0.2681047	0.20618716	0.010612203	-0.33388978
-0.8793592	-0.3175488	0.20938067	-0.2370049	-0.63075346	0.14130239	0.9204412	-0.93739605	0.059613906	0.5505709	-0.0570032	0.49527955	0.7522921	-0.689208	0.50351316	0.6437668
-0.085200876	-0.39284903	0.3377437	0.13246298	-0.3884339	0.28208137	0.4226377	-0.24734607	-0.1844212	0.29320726	-0.27626723	0.5465711	0.079843156	-0.45454735	0.15039779	0.4143046
0.7544671	-1.1797974	0.87000257	0.9787561	-0.64800346	0.9838216	-0.0031010585	0.4139691	-0.8814133	0.1119182	-0.8791769	1.234495	-1.1637082	-0.95737094	0.06951312	0.24634245
0.23334914	-0.28031054	0.01687019	0.07372379	-0.33164406	0.12342261	0.18327558	0.31289142	-0.11885373	0.35587677	-0.36826333	0.52668417	-0.36352947	-0.13433187	0.047728796	-0.065801434
-0.27199093	-0.16724138	-0.15977596	-0.14218126	-0.2258762	-0.049718842	0.19457704	-0.026728645	0.19574322	0.49246556	0.16328591	0.33306274	-0.37730688	-0.13783564	0.51954675	-0.124227084
-1.8578199	0.21321933	-0.009139458	-0.15579027	0.39608872	-0.07448857	0.42503524	-1.7379544	-0.02356323	-0.4383958	0.7414033	-0.33301196	1.3369663	-0.25701687	-0.025555834	0.5418408
-0.05561198	0.045067325	-0.12747201	0.09504728	0.337245	-0.05123899	-0.45495224	0.19100717	-0.24833997	-0.27764317	-0.15545528	0.28753367	-0.4107366	0.21219157	-0.4521585	-0.36404434
-0.15584573	0.54101527	-0.6868822	-0.14896256	0.9333872	-0.51300365	-1.1308432	0.5138017	0.16621345	-0.58141345	0.33459648	0.077363774	-0.65364724	0.8039899	-0.82495576	-1.1646154
-0.68645036	0.3275757	-0.5231017	-0.3843973	0.36654654	-0.43863466	-0.15749028	-0.2741672	0.3226416	0.016298473	0.4098495	0.031093849	-0.089591496	0.36127952	-0.017480146	-0.42308494
0.6464336	0.2772781	-0.08199103	-0.445299	-1.1765062	-0.34974548	0.7572923	0.7087694	0.115107775	-0.044384487	-0.6490997	0.02472154	1.4213014	0.12590265	-1.1377525	1.3379672
-0.23533922	-0.096361004	0.24480532	0.56630516	0.72659975	0.2887436	-0.62684786	-0.51173925	-0.5910003	-0.9140856	-0.17143333	0.18689437	-0.18662472	-0.14507842	-0.7667668	-0.03732866
-0.20950782	0.19654065	-0.27961874	-0.15374646	0.27048835	-0.27042437	-0.22057845	0.055096805	0.046884015	-0.111884385	0.06732762	0.0664869	-0.17110041	0.3397988	-0.28778857	-0.31694812
-0.43283907	0.10814886	-0.24214184	-0.27244487	-0.15930729	-0.18209773	0.17066178	-0.23453228	0.20959277	0.19549939	0.05173801	0.16862796	0.16131335	0.003514291	0.08652165	-0.08583322
-0.32680523	0.20377958	-0.111658104	-0.08311509	0.43323871	-0.15149103	-0.2217277	-0.26462886	-0.026978903	-0.3849924	0.06156549	0.027078504	0.23537563	0.22113647	-0.45876923	-0.21084544
0.080667615	0.28918695	-0.3921121	-0.82034355	-1.7373173	-0.5334049	1.3305703	0.3314746	0.67717797	1.245466	-0.12467901	0.16893709	0.7210037	0.088673286	0.7067652	0.35399905
0.62451357	-0.5084793	0.23354839	0.36285344	-0.3132415	0.3289379	-0.2302927	0.6715328	-0.3375691	0.14273162	-0.6315993	0.77669835	-0.57174724	-0.23844017	-0.17902954	-0.11083291
0.22701283	-0.4676737	-0.15264633	0.04739869	-0.45662507	0.060320828	0.106017984	0.6242862	0.17230631	0.90551895	0.38260987	0.92188966	-1.0845982	-0.33496907	0.89083564	-0.39792052
-0.0036291082	-0.011569478	-0.24286994	-0.25677443	-0.18921404	-0.15334988	0.06987107	0.27426043	0.26079285	0.2663871	-0.021007199	0.20326886	-0.07245197	0.15047242	0.07875699	-0.23333442
-0.4280615	0.35747635	-0.37323853	-0.16958256	0.56157404	-0.26313126	-0.5142971	-0.06479712	0.17667812	-0.35623437	0.34861806	-0.09033508	-0.13078362	0.39905727	-0.37065983	-0.45266098
-0.2585764	-0.051339712	0.10070609	-0.16612785	-0.20283434	-0.020574857	0.31603053	-0.27945903	0.04754116	0.023338953	-0.19463915	0.31335178	0.41002804	-0.19457968	-0.13240896	0.29093835
-0.35756388	0.17584541	-0.2576312	-0.39651996	-0.06256662	-0.27268174	0.1869509	-0.1686843	0.27588505	0.046136327	0.04865552	0.05113788	0.46843413	0.15774447	-0.19848256	-0.026372232
1.7425526	-1.5665785	-0.95193917	-0.713665	-2.1172652	-0.055494223	0.42642868	2.2085176	1.4934787	2.50866	0.24538651	1.886255	-2.788524	-0.34911335	2.6556628	-1.7501602
-0.0033940242	0.2505722	-0.3388051	-0.2183021	0.27102384	-0.32596263	-0.40068176	0.36077997	0.2550673	-0.04999154	0.08625164	0.16198665	-0.19689555	0.46600837	-0.29565406	-0.5474171
-0.37287778	-0.23461068	0.27632976	0.20909178	-0.056183364	0.25865158	0.13918963	-0.3719726	-0.10818875	-0.11664465	-0.10775389	0.2624861	0.20794708	-0.3138869	0.0096503375	0.2938894
0.13453907	-0.86099136	-0.40279907	-0.47036585	-1.6717143	-0.023667235	0.78431135	0.6224002	0.80387163	2.152227	0.30208078	1.2952281	-1.8095686	-0.28903106	2.3329573	-0.7336872
-2.176986	0.055432715	0.23290934	0.6064917	0.7781649	0.18849544	0.10710524	-1.8308473	-0.6173367	-1.0801603	1.1285015	-0.5936918	1.1070759	-0.26209986	-0.1948425	0.3128872
-0.27502215	-0.12733743	0.07065396	-0.11508325	-0.42874202	0.07263666	0.5842843	-0.3479691	0.0036198802	0.40733972	-0.13591644	0.16158172	0.33252734	-0.2725545	0.30591315	0.31772482
-0.69681233	-0.062891684	0.017329793	0.049610727	0.038034897	0.08166424	0.19853327	-0.4970757	-0.0070338976	0.13604619	0.34566107	0.08968621	0.029473001	-0.11634096	0.21283448	0.012717214
0.4372517	-0.4104033	0.3956169	0.13664581	-0.72254664	0.25895423	0.33804858	0.2353247	-0.2066805	0.20232078	-0.58837897	0.47043204	0.16311623	-0.36735845	-0.08311459	0.38728684
-1.4715413	1.456013	-1.472738	-1.6949972	-1.7716688	-1.6279433	2.0375574	-0.43791574	1.565402	1.5690712	0.81227314	-0.7654564	2.0994995	1.1694435	0.71129894	1.602095
-0.35047156	0.10488428	-0.050768778	-0.13089108	0.13531937	-0.108615294	0.06689898	-0.38224778	0.0202865	-0.14038347	0.042760674	0.16601896	0.33709523	-0.076535895	-0.23553587	0.015962595
-0.2986313	0.012215827	-0.4235811	-0.4882837	-0.4978752	-0.31395528	0.3066335	0.25744832	0.535414	0.7843775	0.34151348	0.279256	-0.08157075	0.013543696	0.7143852	-0.2367934
-0.4137834	0.30711043	-0.2065202	0.07917239	0.6980322	-0.16448976	-0.69679034	-0.21635887	-0.17931479	-0.84051037	0.21122223	-0.10764796	0.05605363	0.3726852	-0.8238132	-0.45724115
-0.38491398	0.10586681	-0.16969818	-0.023741161	0.33759955	-0.11521913	-0.1534548	-0.3088928	-0.02969184	-0.24028538	0.109584056	0.09096585	0.07047693	0.06479345	-0.23695572	-0.09997432
-0.116474465	0.17806418	-0.41853118	-0.32578832	0.039745003	-0.332624	-0.13699317	0.19302982	0.27020463	0.34109902	0.12483866	0.29763654	-0.41926566	0.2235247	0.19493802	-0.45568737
-0.20431142	0.39255428	-0.4382032	-0.2250758	0.5925744	-0.4118303	-0.63780504	0.18984798	0.07039552	-0.47203168	0.10861048	-0.006234838	-0.03876493	0.4708694	-0.6797183	-0.5905779
0.05870865	-0.07657248	0.06732437	0.37511128	0.50548214	0.079743594	-0.680221	0.12429729	-0.40893438	-0.50580806	-0.19794092	0.29391617	-0.47399148	0.098619826	-0.62186927	-0.39970466
-0.21607201	0.022364337	-0.14820398	0.14822431	0.4026903	-0.0410005	-0.47999486	-0.031510353	-0.0752507	-0.28160155	0.07295015	0.19619995	-0.29833734	0.15183103	-0.32933888	-0.36770746
-0.7720116	-0.14784472	0.2002817	0.167326	0.114173114	0.1912573	0.3109067	-0.97592926	-0.23755363	-0.37342125	0.09072648	0.04800403	0.70030826	-0.38386863	-0.115691155	0.42614728
-0.5585344	0.28606865	-0.3041736	-0.084882714	0.49310964	-0.29385635	-0.25068134	-0.4228965	0.069714196	-0.38751477	0.35740355	-0.1579294	0.152476	0.24242656	-0.32599822	-0.25016457
0.55124974	-0.8175698	0.83794254	0.8140056	-0.17504641	0.77043796	-0.11917713	0.0038830272	-0.9321448	-0.7101614	-0.9112802	0.8115628	-0.42391688	-0.8757167	-0.55808717	0.46245316
0.94019276	-1.0233003	1.1388172	1.1585774	-0.46407747	1.0577476	-0.27165502	0.34053087	-1.0337175	-0.608425	-0.96178484	0.90619653	-0.78717595	-1.0071318	-0.527935	0.5596333
0.803606	-0.6587027	0.6701705	0.6153069	-0.271749	0.6106612	-0.14314094	0.50725216	-0.6279738	-0.33454546	-0.856287	0.76152927	-0.31958207	-0.65523	-0.5346671	0.34820542
-0.497529	0.40750927	-0.37149036	-0.5477149	-0.2733226	-0.41729766	0.48915365	-0.2976028	0.43863705	0.17572683	0.22402841	-0.33358216	0.9570548	0.19865899	-0.086616404	0.22626247
-0.5741183	0.35249004	-0.5294567	-0.62080616	0.029596515	-0.44811282	0.1474916	-0.05999724	0.64280456	0.3387725	0.41727245	-0.05681445	0.29824486	0.3592821	0.13593954	-0.3189028
-0.56130916	0.22976409	-0.25643843	0.17496456	0.7249845	-0.13862155	-0.68817925	-0.40334386	-0.19631767	-0.72665554	0.24040052	-0.058698162	-0.11668259	0.32199955	-0.64476854	-0.39406806
-0.4350309	0.14876239	-0.26391658	-0.01928695	0.56948495	-0.21536066	-0.49973023	-0.15871295	0.044078328	-0.35615185	0.24360941	0.14531031	-0.2910237	0.2764557	-0.35724878	-0.4813558
-1.3497465	1.1660042	-1.2919439	-1.5059556	-1.6232848	-1.3169194	1.8214308	-0.16133696	1.3599818	1.4812967	0.9031831	-0.57667994	1.6992879	0.839093	0.954767	1.1109856
0.15730204	0.018565962	0.07660052	0.18281451	0.34389135	0.057953004	-0.3393605	0.07883413	-0.2982496	-0.572372	-0.40148416	0.29058972	0.14565185	0.027415771	-0.76997477	-0.053018924
0.16442007	0.011813497	-0.012960412	-0.11518458	-0.22316462	0.011955216	0.15771948	0.17965825	0.07376772	0.072368376	-0.191682	0.14860865	0.1566324	-0.030181363	-0.10710604	0.04610224
0.41378057	-0.79820716	0.58780706	0.75677484	-0.2823646	0.62786674	-0.04546272	0.2887618	-0.62315595	0.14579676	-0.54625744	0.8308058	-0.88582265	-0.5799984	0.013269615	0.09022214
-1.020841	1.1238639	-1.1887062	-1.4110348	-1.500525	-1.2469486	1.7405529	-0.12796405	1.2563794	1.3351762	0.52959687	-0.45328104	1.7352962	0.92692333	0.54145396	1.2781109
-0.058238402	-0.1006418	0.2072424	0.22486424	0.17131916	0.1273328	-0.04166587	-0.2401645	-0.28776696	-0.35939634	-0.13292739	0.15742339	0.29281178	-0.2142764	-0.29949456	0.2547439
-0.7272229	0.9124814	-1.0888091	-0.4985269	1.1582431	-0.9130057	-1.3872378	0.14345717	0.3584907	-0.97839046	0.68644667	-0.3121385	-0.5750952	1.1915122	-1.131322	-1.3373469
1.1320847	-1.40021	-0.13197964	-0.014590229	-1.7380822	0.46530968	0.36191258	1.3532413	0.5672091	2.0838249	-0.40055546	1.5387803	-2.0455694	-0.5173941	2.1103578	-0.8364584
-1.5802035	-0.35947612	0.70505375	0.9850102	0.39286104	0.6668313	0.5008799	-1.6830349	-1.0248328	-0.8990354	0.7020001	-0.49040174	1.2937769	-0.85506386	0.18050118	0.8249858
-0.15428352	0.4087673	-0.6663644	-0.2270326	0.6076852	-0.47108838	-0.9581603	0.5861984	0.2333242	-0.11059359	0.48781568	0.09126268	-1.0389122	0.58375275	-0.35639146	-1.0008236
-0.49062434	0.5914728	-0.6299797	-0.51592255	0.46785232	-0.6434018	-0.39347267	0.014484292	0.4269223	-0.21269111	0.40371963	-0.21112576	0.11642162	0.6340512	-0.36934277	-0.5544658
-0.92927253	1.0535258	-0.9604093	-0.79285455	0.81557393	-1.0144721	-0.69319534	-0.0785663	0.45698348	-0.8736931	0.2902367	-0.43876493	0.46403995	1.1155804	-1.1766987	-0.8013404
-0.21304889	-0.036532655	0.0014797316	0.07596651	0.23284364	0.09235187	-0.24036817	-0.15720235	-0.1755766	-0.22202234	-0.08153918	0.22741675	-0.12307569	-0.013856478	-0.25845623	-0.12795097
1.0150318	-1.4366616	1.6033473	1.686327	0.06967834	1.6017598	-0.58591396	0.13093816	-1.6517705	-1.6301658	-1.3157876	1.2239271	-0.71555406	-1.5158442	-1.1068846	0.9844695
0.10601187	-0.45757374	0.1655537	-0.06576229	-1.0578121	0.20182161	0.6399035	0.15047969	-0.014498359	0.9006866	-0.38438293	0.7407327	-0.3183215	-0.54572505	0.7362714	0.08105405
0.070315376	-0.09284877	0.08735874	0.1016173	0.025298031	0.042834233	-0.09176389	-0.01894028	-0.21750309	-0.23370501	-0.2522093	0.23931845	0.033068627	-0.055594113	-0.31163043	0.033615965
0.12323276	0.27187124	-0.28593823	-0.4129656	-0.20399122	-0.32848042	0.19630794	0.25993085	0.31091195	-0.09488267	-0.1525726	0.003512035	0.6209844	0.22911991	-0.49911427	0.0640825
-0.6774038	0.39619568	-0.5049769	-0.19830415	0.5941658	-0.39996913	-0.47829074	-0.24072409	0.28890568	-0.23409058	0.5241245	-0.039487578	-0.55006206	0.3916941	-0.24414843	-0.6016121
-0.017071238	0.011739229	0.050805088	0.053960737	0.088962585	0.020874351	-0.07163093	-0.13329299	-0.14842701	-0.16739646	-0.14123464	0.21378176	0.15872578	-0.039341602	-0.31495374	0.10974952
-0.47218767	-0.18728852	-0.0020758405	0.036592856	-0.07153407	0.10284345	0.1457241	-0.30202165	-0.004907099	0.28739852	0.31639403	0.21124409	-0.19663543	-0.25173327	0.35484546	0.027186492
0.20200835	0.23863815	-0.3949423	-0.51461256	-0.7700381	-0.43177637	0.5842388	0.5785076	0.51931244	0.6120352	-0.087666765	-0.021415617	0.5283283	0.23137951	0.13440956	0.08402919
-0.14084543	0.013214658	0.040959705	0.32168806	0.5723716	0.1148225	-0.5401497	-0.24140385	-0.4079355	-0.64430165	-0.029762968	0.22416332	-0.19966264	-0.02587572	-0.46377614	-0.19672836
0.033781096	-0.3663405	0.3024837	0.17678408	-0.4264452	0.29167134	0.2749046	-0.1294197	-0.19923416	0.18275441	-0.26337504	0.3899514	0.029333234	-0.37533036	0.13429543	0.2751879
-1.1332974	-0.07681473	0.19531716	-0.24398695	-0.43456158	0.06959494	0.99062306	-1.1510637	0.14100227	0.33492818	0.3370823	-0.20972517	1.1794285	-0.541362	0.60777503	0.8551924
-1.1541657	1.2769189	-1.3706511	-1.4619752	-1.1309677	-1.3752911	1.4408971	-0.006947441	1.3456914	1.1010189	0.7221389	-0.5195169	1.5713079	1.2431366	0.26378876	0.644367
-0.3979391	0.43830824	-0.4652201	-0.34750772	0.52263194	-0.45472127	-0.46318388	0.013626566	0.3838301	-0.2894149	0.30543873	-0.18178403	-0.03192149	0.51795983	-0.35858145	-0.5802564
-0.28042975	0.4755573	-0.657405	-0.18787488	0.81971806	-0.53682566	-0.88374525	0.33107418	0.2610435	-0.33229288	0.3455492	-0.092858024	-0.7075018	0.70357776	-0.5032136	-0.93549114
0.26387337	0.45568612	-0.42804766	-0.7763114	-1.0578996	-0.6597057	0.9355213	0.72581136	0.5228978	0.53049856	-0.2725573	-0.16307767	1.2076207	0.39302257	-0.30594653	0.852907
0.825878	-0.47286284	0.451793	0.65978545	0.06788712	0.488762	-0.5648877	0.68448746	-0.61055857	-0.6038039	-0.71024436	0.57650864	-0.49684387	-0.20799781	-0.80174387	0.016002247
0.10939863	0.20620774	-0.14925955	-0.0027381761	0.4687295	-0.101063475	-0.5705162	0.21936193	0.017740488	-0.3747504	0.041908514	0.011301919	-0.28342623	0.26564273	-0.51240945	-0.40397885
0.13867922	-0.65341246	0.6420828	0.5027446	-0.39638522	0.62880516	0.38275123	-0.28972676	-0.6139366	-0.16216767	-0.5319377	0.5239662	0.11923602	-0.7307443	-0.07618382	0.70409006
0.31578848	-0.1551656	0.22532414	0.12215629	0.025832642	0.13756123	-0.09663617	0.14207658	-0.2624297	-0.5066045	-0.5022148	0.33223176	0.2932753	-0.14688814	-0.7029712	0.26924646
-1.7776545	-0.77566457	0.9000985	0.47348937	-0.92238605	0.76630497	1.6492152	-1.7733626	-0.7691065	0.49273512	0.60702634	-0.1923128	1.7312396	-1.3269259	1.1735908	1.3537147
-0.32531878	0.6848108	-0.8786973	-0.87381154	-0.24428786	-0.861151	0.20772448	0.41371801	0.927778	0.6149713	0.6767275	-0.31465828	0.27680516	0.7454319	0.30205715	-0.52851444
0.14503105	0.018209228	0.16071396	0.42345506	0.60894114	0.19959861	-0.5597076	-0.17193936	-0.5057116	-0.9955235	-0.28109968	0.09530561	0.12763381	0.023093643	-0.95471114	0.029205324
0.9608104	-0.67117167	0.6897506	0.5791143	-0.5248871	0.590108	-0.11999784	0.6541387	-0.6378492	-0.13314088	-0.8613792	0.7557597	-0.42656606	-0.5555576	-0.34178954	0.43956137
-0.6309669	-0.17998782	0.19423461	0.07317513	-0.20041679	0.12693126	0.5336581	-0.70162356	-0.058586862	0.056825493	0.13977319	0.053416573	0.5456056	-0.36973864	0.20965506	0.39472494
-1.673338	0.29942578	-0.037239645	0.21027026	0.80217123	-0.048348814	-0.13358973	-1.5478735	-0.47760344	-0.96947724	0.74761724	-0.37266678	1.032522	-0.06081388	-0.32711586	0.1315141
-0.5232597	0.00085068215	0.09914755	0.1390271	0.26935378	0.11339748	0.03248083	-0.5288864	-0.20822412	-0.2619152	0.2297229	-0.009738822	0.2847117	-0.15161802	-0.14589477	0.17208266
0.13368182	-1.1898717	0.0848485	0.053964406	-1.3123399	0.47883496	0.67643654	0.32226932	0.30060714	1.6260744	0.051719647	1.0972097	-1.2168798	-0.5912517	1.829902	-0.21591401
0.12886998	0.013572971	-0.1281607	-0.2816885	-0.51754516	-0.19832374	0.45182958	0.09897946	0.15736307	0.21752614	-0.2506012	0.09123736	0.43667218	0.07419938	-0.0010091704	0.16304788
-0.3376027	0.7164393	-0.88022	-0.9452495	-1.0427898	-0.8651522	1.0172052	0.5217245	0.91532505	0.73344386	0.20446838	-0.26557958	1.0829052	0.70920944	0.03090027	0.24777016
-0.2765924	0.30661497	-0.22453624	-0.095535524	0.36793903	-0.2529192	-0.15926138	-0.1832671	0.06319836	-0.22351173	0.15794148	-0.068039924	0.13606624	0.2345386	-0.24854878	-0.24718231
0.01318851	-0.084659986	-0.030232422	0.12405117	0.19914292	0.11690683	-0.31318867	0.061077792	-0.123431	-0.07640997	-0.060046863	0.33836648	-0.41803765	-0.019315487	-0.13392732	-0.2491822
-0.23182502	0.15865599	-0.13845928	-0.32067046	-0.15552543	-0.21843235	0.27991462	-0.1468993	0.16187336	0.10200396	0.057872795	-0.014314672	0.44520777	0.073446184	0.0039405194	0.14971277
0.05367239	0.6256099	-0.5594614	-0.8736363	-0.95916194	-0.77425593	0.8905403	0.499349	0.7160271	0.56149596	0.022455344	-0.31396005	1.1589015	0.58699864	-0.18565445	0.38489795
-0.36946404	0.63466144	-0.8747869	-0.52667314	0.5696895	-0.7557654	-0.7231499	0.50062174	0.57010233	-0.30991212	0.5123823	-0.18767294	-0.47218746	0.7714333	-0.47908434	-0.93879557
0.14376643	-0.14630216	0.2579903	0.3370284	0.25364965	0.19502452	-0.36191362	0.042224642	-0.32284743	-0.45809042	-0.38407475	0.27784014	-0.13369066	-0.110720225	-0.5337818	-0.009444962
0.012766298	-0.13272546	0.06417185	0.27641365	0.16084705	0.16739754	-0.20974554	-0.021317286	-0.24894981	-0.20146425	-0.1157715	0.31137773	-0.25558642	-0.12473112	-0.21503192	-0.09580749
-0.3254426	0.069213316	-0.09364178	-0.114349745	0.11627581	-0.061481174	-0.042623162	-0.19350256	0.03909924	-0.12058605	0.07508736	0.109328076	0.14153391	0.05232433	-0.1197687	0.009800231
0.9395791	-0.9096412	0.9907354	1.0499724	-0.061962355	0.9534723	-0.816557	0.72523975	-0.9657932	-1.1091764	-0.89270306	0.88706726	-0.7578256	-0.8644246	-0.93339556	0.40583
0.9217665	-0.650529	0.3816968	0.49072188	-0.61972857	0.50081235	-0.45646816	0.9820303	-0.37866586	0.2687336	-0.608663	0.8096391	-1.3367198	-0.2854914	0.013991817	-0.32838944
-1.4745333	-0.5508527	0.6291549	0.3958157	0.1367379	0.49378592	0.80576456	-1.652135	-0.8171956	-0.31771868	0.1892663	0.4318334	1.1377828	-1.0778247	0.35107833	0.8185017
0.014285911	0.20129001	-0.4539624	-0.27935052	0.20844132	-0.3666832	-0.46591768	0.5937369	0.23210232	-0.051580515	0.057238832	0.12967514	-0.2716857	0.3404891	-0.27941447	-0.62270075
1.472871	-1.1131394	1.2031683	1.3002465	0.085579656	1.1800375	-1.3256855	1.621905	-1.2437804	-1.5592836	-1.2503943	1.0480314	-0.75671166	-1.1084987	-1.7340661	0.8080239
-0.9368835	-0.26573667	0.2844445	-0.13353969	-0.74077773	0.18407452	1.0386386	-0.96386296	0.04657177	0.6492972	0.15759395	0.14682987	0.7925932	-0.70801026	0.7716616	0.6661246
-0.3430316	0.4756061	-0.48385218	-0.29311362	0.6392269	-0.47704208	-0.60535544	0.14578997	0.08258945	-0.57138693	0.058256146	-0.08251908	-0.029170968	0.597744	-0.764169	-0.6542329
-0.010452472	-0.33898836	0.36650798	0.27831158	-0.22133881	0.26519293	0.29825455	-0.34657565	-0.3758641	-0.2627169	-0.418104	0.26088297	0.34410644	-0.48829293	-0.29041865	0.6435389
0.40601176	-0.2754496	0.015398671	-0.0170029	-0.5560741	0.039223623	0.17884266	0.5612997	0.087431185	0.4460587	-0.3061584	0.45710525	-0.28427488	-0.11362591	0.2804987	-0.113590114
0.4787294	0.13765408	-0.043620147	0.23322654	0.5401405	-0.042361464	-0.8538156	0.7707516	-0.28412223	-0.6601857	-0.28972247	0.24027984	-0.35955888	0.28933713	-0.9419531	-0.52467746
0.92271847	-0.5735816	0.64349467	0.7588027	0.30749384	0.6374281	-0.732571	0.72482145	-0.7654447	-0.88096154	-0.8734181	0.63815516	-0.5079488	-0.3747292	-1.0430449	0.062434547
-1.1498079	1.2601204	-1.3011303	-1.2780238	-0.12996635	-1.2893387	0.6410279	-0.28253183	1.288262	0.6067718	1.123451	-0.80365527	1.096032	1.1194177	0.20661268	-0.36306274
-0.32708642	0.48853016	-0.4892336	-0.24396302	0.5730178	-0.4745204	-0.68823135	0.087062635	0.2173186	-0.5727145	0.24468817	-0.2126982	-0.071965024	0.59674615	-0.59836525	-0.6269776
0.5377533	-0.3398802	0.26456836	0.36700737	-0.079927355	0.2681368	-0.31444567	0.5039048	-0.2916139	-0.1779233	-0.4548599	0.39489564	-0.3868267	-0.14519314	-0.22478376	-0.08683869
-0.27197355	-0.34595725	0.40765366	0.23000401	-0.29264462	0.35376343	0.42601383	-0.64328927	-0.4062194	-0.25942743	-0.32583356	0.36570036	0.56516397	-0.6863301	-0.22796652	0.685986
0.5019227	-0.41052392	-0.03296645	0.014528959	-0.38302356	0.13945438	-0.048665218	0.64524746	0.035680447	0.6755754	-0.112050615	0.69847006	-1.0970755	-0.19173855	0.6052375	-0.4976756
0.7056253	-0.117418244	0.13328286	0.32274333	-0.033198476	0.09006024	-0.4066433	0.9154906	-0.2465893	-0.44428864	-0.52132684	0.2835047	-0.21413107	0.12603849	-0.71720034	-0.17711604
-0.09597164	-0.08556001	0.16697934	0.14681447	0.25911212	0.069957025	-0.07064034	-0.31484568	-0.2828921	-0.5292892	-0.16429192	0.08909003	0.36166352	-0.11336821	-0.47856054	0.24418435
-0.8735125	-0.646927	0.6590827	0.38561457	-0.35144994	0.50755095	0.7564283	-1.1073321	-0.72942966	0.1285632	-0.30206543	0.6309011	0.69880044	-0.9944817	0.5353522	0.6966521
-0.4941026	0.5806038	-0.593019	-0.65388036	0.11096368	-0.66071844	0.11007428	-0.20356604	0.5329283	0.07916283	0.41753867	-0.32431656	0.55338925	0.49639988	-0.17191605	-0.18449786
-0.24904643	0.049011584	-0.0058111046	-0.19354038	-0.26109058	-0.02114093	0.40275887	-0.23351079	0.055011984	0.13411812	-0.04325543	-0.0007181277	0.46029705	-0.05880785	-0.013951715	0.23744398
-0.16209406	-0.5447289	0.6115871	0.5253799	-0.12757327	0.5842297	0.31782272	-0.53369224	-0.6449825	-0.38283372	-0.40592247	0.3585832	0.3093955	-0.645115	-0.20201258	0.6484093
-1.4958599	-0.87254757	0.651683	0.39366192	-0.65957624	0.71562904	1.1928426	-1.3565645	-0.6791589	0.60108507	0.4231451	0.5584906	0.713098	-1.1712257	1.19841	0.7892718
0.17919205	-0.5215661	0.34665012	0.3021934	-0.27129093	0.36682266	0.05873617	0.067909144	-0.45921114	0.13803671	-0.53176135	0.719368	-0.42344433	-0.49941632	0.07866227	0.06769847
0.13437383	-0.6731569	0.44587168	0.37431744	-0.83885366	0.47126907	0.37653998	-0.08827861	-0.3738334	0.34499678	-0.37377143	0.55642885	-0.4209726	-0.63858354	0.57446164	0.28425223
-0.18672965	0.09345774	-0.2813366	-0.26058236	0.09241383	-0.1608711	-0.15905854	0.1753281	0.28671035	0.22415496	0.20307414	0.18022324	-0.44521433	0.18606834	0.16784963	-0.40005898
0.6358157	-1.0334343	1.0641654	1.1039077	-0.3785948	1.0177146	-0.14547384	0.019682035	-1.0334896	-0.6999584	-0.8297668	0.8357004	-0.60905534	-0.99588305	-0.32409424	0.6509774
-1.4162942	-0.70453787	0.6169216	0.28885895	-0.18032615	0.48439762	0.9524523	-1.4869914	-0.8876189	0.28693804	0.011363932	0.7529775	1.043217	-1.0686964	0.62252814	0.8070708
-0.9779862	0.04172417	-0.013823698	-0.3768398	-0.60433996	-0.06840414	0.9097989	-0.89114845	0.25302652	0.44033104	0.36651152	-0.21678105	1.0442237	-0.3720452	0.46192956	0.65303
0.69151497	-0.24540868	0.24391034	0.10756696	-0.22393666	0.18340391	-0.07258489	0.9306451	-0.17660667	-0.31102452	-0.6532597	0.43579796	0.3099385	-0.19997099	-0.85929906	0.59869605
0.42247665	-0.6861329	0.16148447	0.10908296	-0.76470685	0.37743762	0.30850118	0.51529175	0.043694697	0.91718584	-0.1253324	0.8285372	-1.0053041	-0.3985869	0.9010176	-0.15620928
0.038462672	0.06637177	-0.3659309	-0.2010223	-0.084267564	-0.13495544	-0.04068075	0.31436166	0.29472902	0.3402029	0.12723371	0.08442553	-0.42883438	0.23432773	0.24745993	-0.443804
1.100401	-0.7439777	0.79645836	0.74089444	-0.34504902	0.74472773	-0.49829602	0.8263903	-0.762836	-0.67300487	-0.9348587	0.7253555	-0.6176267	-0.5907193	-0.7715883	0.36180085
-0.24535212	0.30451792	-0.22667061	-0.4759324	-0.31290606	-0.3555182	0.5999811	-0.30841917	0.21909115	0.094504386	-0.098751135	-0.08277534	0.9274344	0.15023075	-0.22103937	0.31949177
-0.54335827	-0.07547966	-0.019534992	0.096935876	0.23095825	0.089925475	-0.13189183	-0.3388997	-0.14226669	-0.1037573	0.22009802	0.19708672	-0.17611115	-0.04225179	0.01251666	-0.1279654
-0.24645205	-0.1734195	0.07955846	-0.11538893	-0.51385075	0.09143584	0.51161516	-0.32973322	0.10781105	0.29033765	-0.09549425	0.112139516	0.32477346	-0.26139688	0.27096596	0.36726332
-0.39799482	0.63849366	-0.5881342	-0.38955623	0.5721907	-0.54627514	-0.443663	-0.07129088	0.25655395	-0.44532102	0.3110774	-0.3483309	0.16856945	0.62960434	-0.5601676	-0.53826886
-1.1222705	1.2404658	-1.256624	-1.2314725	0.3652797	-1.2932417	-0.1541443	-0.28415954	1.0478781	-0.16458979	0.8092944	-0.9006483	0.9468734	1.2288456	-0.56282514	-0.555549
0.25647515	0.12628338	-0.051375236	0.06971999	0.45449758	-0.031464286	-0.4504383	0.21440561	-0.1521211	-0.70269316	-0.22612883	0.065303184	0.1304356	0.23901059	-0.79502594	-0.24291296
-0.1419058	-0.0049010604	-0.048160337	-0.11421914	-0.12794244	-0.07985128	0.19599561	0.017437367	0.06645582	0.1419541	0.0016587572	0.09721732	0.14363988	-0.037812695	0.10096799	0.077721626
-0.0554184	0.053153533	-0.10538787	0.098058276	0.30765194	-0.062069807	-0.30223942	0.069833644	-0.087512515	-0.30873483	-0.08088895	0.109082475	-0.07527066	0.20153117	-0.35539773	-0.20970015
0.15528174	0.20113556	-0.454599	-0.034273587	0.526841	-0.21593203	-0.7301038	0.5370015	0.13241076	-0.046315916	0.13951118	0.22908495	-0.89975256	0.46996823	-0.23553644	-0.8966846
-0.0008595135	-0.39922875	0.41139784	0.3003846	-0.24668941	0.40562168	0.22898108	-0.3538403	-0.45194814	-0.18082462	-0.4347352	0.4180065	0.172236	-0.54551345	-0.10382308	0.47882777
1.4573324	-0.90636814	1.0769899	1.078221	0.18142878	1.0216194	-0.9821617	1.4916973	-1.0948608	-1.2458929	-1.1732606	1.0143169	-0.54601306	-0.9634502	-1.5869708	0.87202626
-0.5023088	-0.29502988	0.2620871	0.104826875	-0.39702687	0.26846033	0.5815048	-0.5852959	-0.15156107	0.24318999	-0.008715495	0.26261005	0.21420349	-0.4771556	0.47913256	0.4984613
-0.69829196	0.4967319	-0.61392856	-0.5135973	0.35396418	-0.6029414	-0.16361272	-0.13617493	0.45835286	-0.08170098	0.5462287	-0.2170921	0.108128	0.4502879	-0.18502092	-0.43321562
-0.16104047	0.5132165	-0.44981796	-0.11239757	0.84462106	-0.367118	-0.85510343	0.14342438	0.055810787	-0.7873376	0.22057515	-0.21016504	-0.30162135	0.74272156	-0.876088	-0.79809856
0.68567675	-0.30723527	0.06204725	0.3043367	-0.11139126	0.22707169	-0.4538978	0.9865704	-0.13586491	0.30157796	-0.31022537	0.62292576	-1.1086723	0.013158251	0.08464484	-0.547703
-0.45617443	0.1008667	0.022886392	-0.14559093	0.13247378	-0.032305863	0.26437023	-0.633483	-0.010817528	-0.36776754	0.06936421	-0.16461691	0.7599779	-0.10487686	-0.2898463	0.37004176
0.6217312	-0.84954	1.0330688	0.9969928	0.003210702	0.9909509	-0.1978835	-0.08237959	-1.0766004	-1.0636257	-0.93610334	0.8077561	-0.3935132	-0.8755818	-0.6842981	0.5851043
-0.13325042	0.33217084	-0.37634146	-0.007257816	0.69981134	-0.25933254	-0.7664634	0.19502147	-0.14174698	-0.68032026	-0.0019535965	-0.11342356	-0.18877341	0.5551894	-0.8955593	-0.5660174
0.35211512	0.12193644	-0.32494974	-0.119502254	0.03543787	-0.27029115	-0.36206844	0.8243857	0.13794737	-0.023677835	-0.14823337	0.07586401	-0.28901303	0.36993277	-0.2808565	-0.5083117
-0.44088146	0.55186456	-0.6860423	-0.42413822	0.5146814	-0.61799043	-0.5616646	0.14447787	0.48339942	-0.22017564	0.5936154	-0.19644871	-0.30705327	0.6983557	-0.32658136	-0.80947924
0.10986855	0.30580947	-0.3681015	-0.46937764	-0.30658185	-0.36938584	0.22949554	0.5009845	0.49083164	0.41921577	0.07439621	-0.049703047	0.1428583	0.3650004	0.16984016	-0.29665354
-1.5714923	-0.97675234	0.9779881	0.7052419	-0.77198255	0.823045	1.3465765	-1.6275645	-1.0955226	0.42237455	0.46827462	0.26991472	1.510532	-1.4327697	0.98742193	1.148842
-0.85787636	0.4527025	-0.46246162	0.087673776	1.0420294	-0.38909227	-1.001663	-0.47595644	-0.15144682	-0.98201126	0.5502261	-0.29226294	-0.39461955	0.55355924	-0.8907406	-0.71570814
-0.6610853	0.04354364	-0.028400028	-0.22018589	-0.17581388	-0.04880404	0.4691903	-0.58409	0.1005191	0.1549534	0.24540395	-0.04961859	0.57855606	-0.20563318	0.16239277	0.2905085
0.48152986	-0.30188546	0.13667308	0.2636188	-0.1243686	0.20488566	-0.25208732	0.4900541	-0.14792293	0.06469648	-0.34601215	0.45961884	-0.6722552	-0.05941058	-0.027959008	-0.26667976
-0.4950529	0.59953004	-0.584245	-0.28417474	0.827215	-0.5526198	-0.83174145	-0.097808905	0.1044151	-0.7389679	0.4257907	-0.29888386	-0.10673811	0.64838487	-0.741585	-0.7108249
-0.3297452	0.402331	-0.47861633	-0.34406376	0.22632521	-0.4790706	-0.26699537	0.13529262	0.3688702	0.10421849	0.26989913	-0.035136674	-0.22717525	0.507761	0.05256856	-0.5853868
-0.02482466	0.33676183	-0.18488406	0.5112647	1.2741954	-0.06319496	-1.589153	-0.081759565	-0.62247205	-1.7107989	0.014242344	-0.082962655	-0.7254509	0.4978092	-1.6028622	-0.75591063
-0.15361002	0.31367287	-0.41394395	-0.13073945	0.4230673	-0.32444876	-0.526886	0.21072708	0.12536812	-0.13460302	0.32435954	0.053064212	-0.39986452	0.35772464	-0.2392383	-0.54088
0.018022738	0.15050071	-0.16643432	-0.43863925	-0.862665	-0.23124889	0.68305224	0.118358865	0.30396295	0.30994415	-0.2477342	0.026004417	0.8543762	-0.07711527	-0.13740619	0.70992273
-0.53324825	0.74879086	-0.79524136	-0.49793276	0.72629434	-0.73753434	-0.7223375	0.15595429	0.26442778	-0.72623676	0.2939278	-0.393063	0.099471524	0.9420026	-0.90352273	-0.760642
-0.7982331	0.89206344	-1.1046846	-1.1721282	-1.1532595	-1.0381093	1.2190534	0.50546277	1.2037953	1.1395371	0.44396225	-0.12963267	1.0719004	0.8750186	0.6121859	0.26286095
-0.25284386	0.24080433	-0.26613572	-0.05489401	0.41565356	-0.19643186	-0.41472465	-0.03843786	0.09175831	-0.19703823	0.33540168	0.050337564	-0.25654793	0.28381905	-0.24918918	-0.39007512
-0.6164736	0.3439317	-0.21958914	0.008376995	0.70121294	-0.19199188	-0.6547605	-0.52295536	-0.15739496	-0.8175967	0.34122533	-0.2806037	0.0031091943	0.35686922	-0.63658065	-0.3354796
0.08950629	0.29694757	-0.15983845	0.31422642	0.9387612	-0.11777505	-1.2331715	0.26047212	-0.33357918	-1.2566493	0.023118349	-0.18866102	-0.3583405	0.5236327	-1.3453381	-0.6358882
-1.2793418	-1.0386391	0.995694	0.8296415	-0.86926657	0.89747864	1.1836073	-1.4001251	-0.92590153	0.06632946	-0.057168785	0.45377508	0.9118205	-1.2383076	0.8939021	1.1126499
1.4643608	-1.2177002	1.3306926	1.402863	-0.05696072	1.3500841	-1.1942639	1.2083155	-1.2874882	-1.2800661	-1.2528956	1.1738219	-1.0036553	-1.2424606	-1.4274602	0.8158652
0.4237062	-0.7325402	0.46673152	0.34116897	-0.5748047	0.53963745	0.17970227	0.2354947	-0.37198064	0.31387767	-0.4594915	0.85143894	-0.4984249	-0.69066507	0.31062016	0.12319139
-0.9525116	0.31116837	-0.37540305	-0.65267813	-0.5874015	-0.41163397	0.90641946	-0.52662545	0.6908211	0.6509671	0.5712162	-0.18030089	0.868693	-0.055143494	0.48053733	0.42672172
0.40416265	-0.37517098	0.59128314	0.51200515	0.19519365	0.4936755	-0.25197178	-0.059598718	-0.67329705	-0.76265365	-0.6103563	0.43501028	0.1265886	-0.41319138	-0.84170496	0.6367583
-0.027812965	0.056883607	-0.08342779	-0.061212815	0.30828854	-0.09652595	-0.30307296	0.059968233	-0.044055067	-0.28752598	-0.021354875	0.10144406	-0.027298553	0.17854984	-0.34733456	-0.19345818
-0.51027155	-0.84380454	0.8595452	0.7040582	-0.23604894	0.7733317	0.46070564	-0.79560345	-0.9007281	-0.23271231	-0.5074443	0.77189696	0.33235493	-1.0151359	0.20161736	0.5917234
0.31493208	-0.1806957	0.18851222	0.4724791	0.3086619	0.30633652	-0.54212993	0.1848773	-0.48459896	-0.45213053	-0.3685191	0.34242374	-0.38155672	-0.09897878	-0.5732703	-0.12007425
-0.67835194	0.02667764	-0.23997183	-0.45679712	-0.6692265	-0.16805482	0.78041404	-0.35760787	0.49512258	0.8998557	0.61516726	-0.02184911	0.2716404	-0.22750352	0.9660402	0.15644139
-0.40750656	-0.91984385	0.78090066	0.73181075	-0.56208426	0.8444406	0.6150664	-0.5683093	-0.8207043	0.08682568	-0.3569277	0.5057787	-0.03630381	-0.8548556	0.5712628	0.59986365
0.43188348	0.005041068	-0.07526567	-0.036864653	-0.111747935	-0.06486226	-0.08915208	0.57806957	0.013467612	-0.035679165	-0.2940897	0.19099624	0.006007716	0.22673213	-0.31842247	-0.14085464
-0.10544136	-0.013976111	0.08705603	0.1272461	0.3673405	0.09098687	-0.32075506	-0.1597935	-0.22262162	-0.5618705	-0.07349812	0.115919344	0.046815295	0.0040955413	-0.5241132	-0.112362415
0.26037183	-0.5049561	0.63041127	0.5717159	-0.015303041	0.5272761	-0.04131776	-0.32109666	-0.62907004	-0.7949741	-0.49028736	0.4078155	0.032469135	-0.50998884	-0.5794425	0.49728075
-0.39599174	0.11650472	-0.085863836	-0.45017728	-0.9336437	-0.23886375	0.9505164	-0.4190985	0.27827048	0.4928398	0.12947802	-0.16259953	1.0070941	-0.24026267	0.328993	0.79441386
-0.7300195	-0.28975612	0.2192309	0.23658392	0.03307134	0.26535797	0.3515673	-0.73757285	-0.2694905	0.06940425	0.30577618	0.14510456	0.26392713	-0.49847445	0.3388925	0.37206003
-0.88622636	0.711081	-0.6780519	-0.2992847	1.0180343	-0.67167765	-1.0723875	-0.37627932	0.044513807	-1.0614392	0.5704861	-0.4212363	-0.16022533	0.80490625	-1.0681661	-0.8976265
0.33451536	-0.07800085	-0.027109208	0.123454586	0.3473694	-0.0045282645	-0.60046095	0.51696366	-0.11712734	-0.3813029	-0.2901131	0.23448905	-0.27854222	0.21235864	-0.59154755	-0.3749553
0.33790222	0.036275093	0.04634942	0.18819833	0.35525325	-0.0020893945	-0.63739556	0.5839522	-0.18418185	-0.5387351	-0.23385298	0.14359087	-0.19600876	0.19281693	-0.7154482	-0.2844163
-0.005272185	0.0107839145	0.03782037	-0.03588322	0.10155031	0.008327793	-0.06909659	0.04936719	-0.0030599204	0.0019184693	-0.12534103	0.14471135	-0.110791504	0.015857339	-0.034935493	-0.08017845
0.4870631	0.08477609	0.14752299	0.043609347	-0.034417704	0.013793359	-0.11754089	0.44018954	-0.18910287	-0.3732289	-0.40357125	0.10146618	0.2566102	0.088573456	-0.73598653	0.20185176
-0.6338314	-0.16056094	0.118019104	-0.17094323	-0.55564654	0.070599124	0.7265522	-0.60533637	0.017372033	0.404874	0.23446119	0.020875312	0.55184853	-0.44098774	0.58537865	0.45405644
-0.03266968	0.1409793	-0.21172976	-0.21811338	-0.061160427	-0.22397576	0.025701271	0.109705426	0.18122058	0.08983451	0.0032294274	0.017847013	0.096203804	0.23053546	-0.096917085	-0.19643088
-0.09229189	-0.16090213	0.18720374	0.12915432	0.06434652	0.20335318	0.032221984	-0.23580733	-0.21631227	-0.0720439	-0.041140996	0.12315653	0.07068507	-0.17694804	-0.06624445	0.169408
-0.5033596	-0.0743166	0.13617218	0.021183038	0.019923147	0.056435216	0.238843	-0.5118971	-0.0651835	-0.05313752	0.04670544	-0.03623957	0.42607692	-0.22830068	0.046035435	0.2564474
-0.29800647	0.41327542	-0.52255297	-0.11379283	0.69395477	-0.39003664	-0.7481913	0.11199731	0.16788085	-0.32248166	0.31500566	-0.034792736	-0.64955914	0.5458705	-0.36279932	-0.7874944
0.11465568	-0.08565226	0.13465652	0.19961056	0.02857938	0.15064399	-0.079515696	0.041371744	-0.16513596	-0.26455906	-0.28686354	0.14836353	0.16024682	-0.1978681	-0.36248636	0.15242355
0.22856921	-0.3213767	0.267505	0.19064453	-0.20526834	0.2007537	0.05138256	0.023090987	-0.30387256	-0.08571035	-0.38351467	0.3536633	-0.09376408	-0.23955484	-0.10068947	0.14659257
-0.100245714	0.078332655	-0.26945293	0.041015215	0.23157465	-0.14151712	-0.40968454	0.14001489	0.103999324	-0.13239603	0.13737027	-0.011033237	-0.29541022	0.20976868	-0.13387801	-0.42838687
-0.11902996	0.23981024	-0.12233837	0.007925613	0.29373097	-0.17157617	-0.3212121	-0.06253961	0.013339929	-0.43313876	0.030255515	-0.081601076	0.18426411	0.21602078	-0.43954307	-0.109021045
0.8677828	-0.3647039	0.524699	0.35676593	-0.42074576	0.34837568	-0.11297262	0.73809534	-0.4303353	-0.5514814	-0.800824	0.41247687	0.1118393	-0.38431612	-0.89280957	0.66746855
0.56432736	0.09321207	-0.40549344	-0.48392358	-1.0680473	-0.41132575	0.5010675	1.1492953	0.47407326	0.90736645	-0.10594329	0.33802217	-0.14282365	0.3302826	0.5166737	-0.458728
-0.0727691	-0.3121564	0.30369362	0.151965	-0.41741973	0.2079551	0.49023694	-0.38093957	-0.20444056	-0.0329319	-0.31403476	0.1977465	0.39241102	-0.44029203	0.05733812	0.59447515
-1.4137437	-1.1423086	1.1455135	0.89770645	-0.98284215	0.99895215	1.350708	-1.5251777	-1.1956948	0.35555804	0.27648458	0.21822403	1.3994503	-1.4299104	1.0382892	1.169486
-0.9957419	-0.005516157	0.14165169	-0.2100282	-0.4615962	-0.022268219	0.90678436	-0.8664593	0.08203682	0.352022	0.4590187	-0.42507973	1.0095011	-0.42708498	0.5598316	0.6786905
0.31751385	-0.12589036	0.035969544	-0.03930495	-0.23299952	-0.032102603	0.079064704	0.3972002	-0.028871994	-0.11344658	-0.33165398	0.27625084	0.2201323	-0.07946309	-0.318788	0.16387722
-0.46797577	0.142576	-0.17859663	-0.29193163	-0.036726616	-0.20694448	0.17960091	-0.21706031	0.32784536	0.2199078	0.23733814	-0.071059324	0.2067452	0.09865856	0.109833755	-0.020392299
-0.18846308	0.09146951	-0.17641458	-0.19821617	0.06035505	-0.18710878	-0.020260809	-0.07501484	0.21050015	0.089638256	0.15586558	0.052493438	0.08881082	0.08860165	-0.0199985	-0.08627151
-0.20885387	-0.1605002	-0.019341156	-0.28644416	-0.81946725	-0.0033138003	0.7367903	-0.073768824	0.2427517	0.74266785	0.0902406	0.16774774	0.058280695	-0.1733278	0.7604406	0.16319889
-0.603222	0.37488836	-0.31760517	-0.23532395	0.32420406	-0.30010858	-0.10145562	-0.40627137	0.1918302	-0.36861578	0.36224267	-0.2655243	0.37492675	0.21847859	-0.31563142	-0.13182722
-0.62899643	-0.34821096	0.2686671	-0.0054252436	-0.39119998	0.21465613	0.5688551	-0.72391516	-0.11910363	0.34853408	-0.08907963	0.4462066	0.40526396	-0.586674	0.3430015	0.38537106
0.79177845	-0.76551706	0.78516626	0.7365729	-0.25786513	0.74203444	-0.24064755	0.29762363	-0.75631875	-0.50183773	-0.85823476	0.77045244	-0.28058717	-0.8347695	-0.6972051	0.68444484
-0.45241776	0.8328334	-0.8864725	-0.71765125	0.7279349	-0.8251815	-0.74013907	0.39558393	0.50747186	-0.45621154	0.50972825	-0.5176351	-0.055789262	0.9708489	-0.67215234	-0.9762619
-0.90039206	-0.598253	0.616398	0.35378373	-0.6579353	0.5578602	0.97265756	-1.0661063	-0.51910883	0.22094706	0.12891933	0.18550803	0.7925575	-0.912739	0.67197746	0.7673885
0.2515839	-1.1261765	0.3312128	0.40255705	-1.0209783	0.593016	0.7282367	0.28117356	0.056694977	1.0324968	0.41089123	1.0334588	-0.8513569	-0.84421915	1.3325255	0.02094042
0.29377332	-0.43782988	0.33302373	0.09217189	-0.8168856	0.2777153	0.42663342	0.110265754	-0.15762548	0.25963068	-0.47896355	0.3761057	0.029969584	-0.44748288	0.060364366	0.44477913
0.09584903	-0.37814507	0.20408975	0.30526787	-0.14365514	0.31294167	0.006744534	0.045175962	-0.27505887	0.09242766	-0.21733953	0.38721392	-0.3192915	-0.31124374	0.09608625	0.038013022
1.0300393	-0.90892315	0.828612	0.755043	-0.4731131	0.79029936	-0.39503095	0.80870765	-0.7208899	-0.38016272	-0.8989891	0.8602099	-0.6114265	-0.7921029	-0.6468572	0.4898086
0.89127785	-0.53091186	-0.548701	-0.38663965	-0.66865355	-0.11442166	-0.042467672	1.2691418	0.862484	1.3096044	0.19399928	0.97623473	-1.7923717	0.0400663	1.2893964	-1.0769367
-0.5510244	0.6976898	-0.6829795	-0.6095429	0.16383454	-0.69352734	0.01240324	-0.04816456	0.56180555	0.088489704	0.42333874	-0.34743258	0.3807786	0.6768688	-0.1882965	-0.39868027
0.17158936	0.0045138244	-0.14229129	0.104020506	0.33550635	-0.06505778	-0.57319695	0.5677435	-0.061752234	-0.21996725	-0.09157457	0.22244239	-0.6062387	0.17713073	-0.27510172	-0.5790839
-1.1725812	0.5229292	-0.42645335	-0.19204885	0.85460246	-0.46463144	-0.5045015	-0.88583994	-0.002735558	-0.80077434	0.56847996	-0.4631101	0.51976854	0.3956633	-0.59456146	-0.27876347
0.42915604	-0.58586663	0.4542515	0.41894647	-0.28002504	0.449907	-0.061836943	0.24431631	-0.4381272	0.0047107735	-0.43533885	0.5314569	-0.3146761	-0.48485166	-0.07041225	0.21086788
0.04505755	0.3403018	-0.39095944	-0.5180794	-0.45815974	-0.45583197	0.40098083	0.5531764	0.3426517	0.15198013	-0.09194333	0.07201799	0.7748088	0.3822247	-0.50047517	0.36386704
-0.53054297	-0.85400265	0.8812596	0.72680753	-0.4789849	0.8198327	0.67852294	-0.8630207	-0.7978369	-0.3599719	-0.28766316	0.2933133	0.50638896	-0.99937063	0.28198627	0.8199814
-0.13304785	0.21960677	-0.22745164	-0.5294616	-0.9261533	-0.31743428	0.8267682	-0.027543731	0.470991	0.5256104	0.013372853	-0.18012695	0.737133	0.044221114	0.22574092	0.53359056
-0.18847895	0.041697964	0.05876287	0.068942145	0.26921338	-0.0026190397	-0.16544679	-0.18986455	-0.14149006	-0.40264562	-0.08345318	0.006475673	0.29970244	0.0021693767	-0.47812665	0.061962597
0.48453307	-0.15414397	-0.32891342	-0.2713119	-0.44153124	-0.12775132	0.08173895	0.94267017	0.40889224	0.7168155	-0.061112802	0.48847067	-0.55033475	0.15489835	0.47049686	-0.5143919
-0.31115103	0.46084917	-0.58363837	-0.37829125	0.5044321	-0.5096723	-0.54412	0.19075873	0.3955937	-0.24277456	0.4086275	-0.16679685	-0.49491864	0.49798423	-0.2865916	-0.6728187
-0.26659876	0.4647311	-0.25593758	-1.9763684e-05	0.68997467	-0.30410704	-0.59827757	-0.31738913	-0.1936418	-0.8686161	-0.08598766	-0.061328784	0.26544377	0.43006507	-1.0434315	-0.19770817
0.37689605	-0.34670034	0.23923714	0.3565097	-0.019763088	0.23152304	-0.31085768	0.345226	-0.32454804	-0.21921827	-0.42896783	0.4562076	-0.33662665	-0.11880117	-0.40425	-0.09515109
0.09652534	0.18689227	-0.47931325	-0.40087146	-0.067992955	-0.31937525	-0.17908204	0.5835284	0.4307033	0.42142364	0.12295301	0.16156976	-0.43548718	0.47887492	0.20288038	-0.60554403
0.09798619	0.44684923	-0.28901404	-0.5967286	-0.9696272	-0.51169765	0.8398029	0.19202977	0.4722039	0.33559534	-0.04234529	-0.38668364	1.051154	0.364111	-0.28546336	0.6545764
-0.34500787	0.010937886	-0.013168453	-0.08543371	0.030895809	-0.08741215	0.20016627	-0.4332787	0.032040507	-0.078545906	-0.0011407161	-0.040170413	0.39227155	-0.07075956	-0.045974027	0.19809595
0.9647201	-0.5150435	0.55307025	0.5737159	-0.20045024	0.46448612	-0.5356483	1.0532167	-0.5539526	-0.518292	-0.74444866	0.5944242	-0.38249078	-0.37250873	-0.8132033	0.10557923
-0.5710249	0.22370109	-0.28415647	0.11531152	0.5903259	-0.14262836	-0.49006444	-0.30832705	-0.06728031	-0.42155355	0.37454695	-0.015868736	-0.4495186	0.3031781	-0.3276957	-0.47699058
-1.0188655	0.9602698	-0.89886934	-0.7245847	1.1954752	-0.98254454	-1.3007208	-1.0942695	0.25374866	-1.2604445	0.7035276	-0.63185304	-0.071921155	1.0793093	-1.2548062	-1.083909
-0.23355126	0.53414786	-0.41921273	-0.66019654	-0.7763198	-0.5356154	0.8796538	-0.22864908	0.5081591	0.39309752	0.026354589	-0.19700773	1.2421318	0.43489483	-0.35079652	1.0383549
-1.1233807	-0.14574614	0.16822435	-0.06379982	-0.2873048	0.047820613	0.88100845	-1.0105633	-0.14202891	0.50252634	0.23046167	0.23060198	0.87495613	-0.53006834	0.654496	0.48841405
0.1840356	-0.12730892	0.097258136	0.13201016	-0.008804829	0.044336688	-0.18096581	0.22092254	-0.117006525	-0.14196406	-0.26977256	0.21244271	-0.02803418	-0.028587112	-0.28629148	-0.050488003
0.34034732	0.257614	-0.37098	-0.12844439	0.16790102	-0.32815152	-0.52384144	0.9313567	0.14969364	-0.030460496	-0.1948772	0.13485698	-0.32813504	0.5803051	-0.39104286	-0.7675061
0.34158835	0.08683526	-0.027387088	-0.30319837	-0.77396744	-0.22514021	0.43399844	0.58532965	0.094408356	0.1578463	-0.3199469	0.043705784	0.5406261	0.07641254	-0.24731347	0.38598055
-0.025499187	-0.12672405	0.008121686	-0.23214854	-0.79506266	0.04074454	0.69254583	-0.07874942	0.11857536	0.52932984	-0.15655896	0.1896553	0.29716012	-0.30346552	0.39481482	0.38507053
0.03287219	-0.19638592	0.20243403	0.18926643	0.042990524	0.24187523	-0.0029679178	-0.14917576	-0.29924938	-0.23152287	-0.1880459	0.14717512	0.09952406	-0.25273135	-0.24543422	0.21826966
0.31552285	-0.22310801	-0.03576187	0.18163216	0.15000243	0.09882826	-0.414669	0.58127767	-0.10817268	0.110560365	-0.2535687	0.50102925	-0.7911041	0.10428679	-0.01790874	-0.53491074
0.9257898	-0.6639544	0.7656326	0.88819975	-0.1697244	0.7340058	-0.7699591	0.7624897	-0.74011993	-1.0545926	-0.7109522	0.64070535	-0.5911415	-0.5269251	-0.9528048	0.3786737
0.55250925	-0.19911358	-0.05413416	-0.20676823	-1.0264952	-0.008462962	0.471287	0.7268153	0.2918179	0.70929784	-0.36092287	0.33586535	-0.016896902	-0.09799228	0.41046828	0.099879816
-0.004435193	0.10465151	-0.06525856	-0.3697935	-0.69138604	-0.25418985	0.5645573	-0.0738824	0.25291318	0.27751833	-0.07781184	-0.036032587	0.6316667	0.007040767	0.051175706	0.36510044
-0.16460077	0.17198168	-0.18201815	-0.105328545	0.31804684	-0.19899797	-0.4002267	0.07506852	0.08133632	-0.23035485	0.10158593	0.0041817813	-0.036258943	0.2665484	-0.31217852	-0.38801247
-0.86236703	0.9285138	-1.1486843	-1.214367	-1.2043079	-1.061645	1.2934769	0.2560558	1.1930225	1.2189292	0.812115	-0.6119983	1.0293581	0.90519226	0.9110603	0.24970625
1.0600986	-0.91611016	1.0224812	1.0923017	0.23062462	0.9684971	-0.92430663	0.8399471	-1.0287662	-1.1699836	-0.9215018	0.8303694	-0.815119	-0.7463312	-1.1312407	0.28081712
-0.24794191	0.29664633	-0.42281976	-0.30917013	0.22879916	-0.365853	-0.33307487	0.10508485	0.37044916	-0.113979094	0.2962117	-0.1221177	-0.00559043	0.40252313	-0.20550497	-0.45244086
-0.6105823	0.6800668	-0.667167	-0.8653252	-1.0106778	-0.7474176	1.1464789	-0.1459858	0.72616553	0.8106393	0.33519444	-0.39883205	1.1784031	0.44865897	0.2812643	0.68712795
0.16864681	-0.14196296	0.24005523	0.21893738	0.038040116	0.18411495	-0.12514542	-0.05762773	-0.35943434	-0.448785	-0.24301682	0.17376314	0.127877	-0.15944797	-0.51330084	0.17288221
0.0967993	-0.10370679	0.015288973	0.23746525	0.22092277	0.11698402	-0.32010686	0.13943994	-0.18923427	-0.2652545	-0.17007859	0.20244244	-0.30426165	0.011416114	-0.30142286	-0.20331453
1.2718048	-1.0447512	1.1425751	1.2143246	-0.24835528	1.1013824	-0.9629142	1.0981054	-1.06741	-1.269968	-1.0201942	0.95223695	-0.7964233	-0.9815861	-1.2638831	0.5880777
-0.16627678	-0.009254185	-0.0012891103	0.27140662	0.45207626	0.07838209	-0.40356278	-0.15412217	-0.27900824	-0.52685237	0.009267536	0.03661224	-0.11974876	0.09607307	-0.41698128	-0.1870758
-0.24563418	-0.118625775	0.058734845	-0.23518766	-0.92857504	-0.029220413	0.80076253	-0.3661557	0.23147306	0.6054059	-0.0013807138	0.03747916	0.54351455	-0.33376846	0.513792	0.51914966
0.15836367	-0.04529599	0.066134125	-0.06058253	-0.3966304	0.003673094	0.2529839	0.0993532	0.03235963	0.011248366	-0.2734622	0.052922443	0.32967103	-0.10994604	-0.091277085	0.35858718
0.6232328	-0.4808146	0.42025483	0.3743327	-0.39167336	0.3902915	-0.1019317	0.6084434	-0.4282817	0.07592891	-0.5393088	0.5725048	-0.454077	-0.40242454	-0.101426765	0.08733764
0.31473732	-0.7271331	0.9331849	0.87684566	0.017981531	0.76708966	-0.24470714	-0.19789325	-0.98194164	-0.8298413	-0.6766074	0.7155766	-0.28533494	-1.0947773	-0.5334935	0.66914237
0.2766204	-0.16933681	-0.00840583	0.14758845	-0.045086864	0.07215835	-0.16150263	0.39101273	-0.067280695	0.06692342	-0.15796152	0.3673774	-0.41240147	0.048816584	-0.01161141	-0.27557623
-1.2717164	-0.64891046	0.5682533	0.2622491	-0.39438784	0.5104843	0.9811136	-1.3025907	-0.7838821	0.35836977	0.22157587	0.57030195	0.9909715	-1.0551465	0.6996921	0.79520404
-0.09557729	0.388655	-0.8274272	-0.76642776	-0.3765424	-0.71141464	0.29304254	0.68336546	0.8235388	0.62448144	0.39722788	0.008849618	0.22227624	0.58994544	0.35109273	-0.4959308
-0.046684872	0.11019477	-0.060417626	-0.086479865	0.06607123	-0.12274671	-0.04097324	0.04984246	-0.030342907	-0.130952	0.012270637	0.021989807	0.124527596	0.068856165	-0.31713986	-0.07956644
-0.26963386	0.56928253	-0.5376685	-0.53148997	-0.07154893	-0.57110125	0.19505234	0.059533894	0.4117451	0.092785604	0.26074454	-0.33710715	0.56737065	0.63665617	-0.1956275	-0.119526826
0.80583036	-0.49893087	-0.402691	-0.24388725	-0.70074505	0.03290203	0.014136982	1.0742384	0.67942697	1.0758458	0.27656597	0.7975635	-1.4613518	-0.102105424	1.0763073	-0.8364539
0.36210102	-0.37802866	0.35087517	0.40714756	-0.08063384	0.3813107	-0.06026847	0.11427585	-0.42768198	-0.1319966	-0.34964085	0.38109785	-0.27074304	-0.35975724	-0.18983637	0.115596816
-0.15457784	-0.47764677	0.37927464	0.3851227	-0.15066111	0.45348626	0.098585874	-0.29956213	-0.29651612	-0.03985384	-0.18499097	0.40800348	-0.053642254	-0.45790872	0.081334844	0.28740445
-0.037607267	-0.14432068	0.1357215	-0.040570043	-0.36108762	0.04154864	0.39863393	-0.14195542	-0.06815772	0.18561737	-0.18835066	0.14224291	0.24796024	-0.21402632	0.10843883	0.2982109
0.48927578	0.034780774	0.06854688	-0.07894228	-0.44631162	0.03173387	0.13930021	0.5123815	-0.07081828	-0.09623602	-0.3997108	0.10930672	0.2878576	0.01582163	-0.4688186	0.18602441
0.48550454	-0.54386413	0.6077914	0.65987396	0.30715674	0.5661915	-0.54496807	0.10842476	-0.6840242	-0.68726057	-0.6365643	0.54706603	-0.37898713	-0.43510625	-0.6392808	0.18018025
0.298025	0.13889785	-0.36131006	-0.490548	-1.1267744	-0.3859886	0.8035481	0.55060226	0.5455115	0.8529607	-0.01789633	0.06703612	0.21690792	0.14428473	0.630271	0.01096344
-0.39131722	0.2500887	-0.21616349	-0.19988658	0.19681515	-0.15003903	0.015924156	-0.3326683	0.18310352	-0.04788626	0.24079302	-0.13941377	0.2888506	0.1427937	-0.15112928	-0.02850632
-0.3148956	-0.23640732	0.25768593	0.07233115	-0.45334905	0.1708092	0.56156534	-0.52899855	-0.21608463	0.11718831	-0.2739051	0.29061666	0.39646658	-0.45546538	0.10149948	0.4434475
-0.35227206	0.5523908	-0.681079	-0.6836413	-0.09690033	-0.6810417	0.19230713	0.23060358	0.69189936	0.38535732	0.4459778	-0.25040323	0.26313862	0.5235476	0.2492739	-0.4419289
-0.45004234	-0.32115167	0.43211934	0.5395372	0.4313236	0.43733862	-0.17057602	-0.6162161	-0.6590545	-0.658154	-0.152017	0.25940198	0.1228433	-0.35982966	-0.2836238	0.20862287
0.3784373	-0.4522923	0.49379587	0.6824982	0.16862287	0.55193794	-0.37150618	0.15467389	-0.6257723	-0.48368388	-0.43206322	0.4730241	-0.48701617	-0.3454174	-0.44120967	0.10212632
-0.54035574	-0.023517998	0.05471645	-0.17785625	-0.39612803	0.0105284965	0.5684058	-0.64215684	0.0603666	0.021415416	0.03904013	-0.039977618	0.8213568	-0.26302359	0.08952173	0.53482074
-0.19393274	0.6243105	-0.61274046	-0.42306468	0.49840593	-0.6166088	-0.53333545	0.32075492	0.4206358	-0.33431694	0.3212492	-0.27957037	0.20749548	0.74320793	-0.55645204	-0.6400669
-0.39012188	0.2506743	-0.32344523	-0.4236236	-0.17304121	-0.3622896	0.29021138	-0.15353267	0.34321353	0.17633897	0.24562924	-0.12814622	0.45137978	0.11028583	0.093738146	0.029044786
-1.1350899	1.2091771	-1.1887262	-1.1766876	0.13743877	-1.29135	0.259483	-0.5101672	0.98744816	0.08465813	0.799509	-0.93583775	1.0493946	1.1918924	-0.35625517	-0.28838095
0.10340315	-0.23366293	0.30607173	0.19492598	0.070183255	0.253513	-0.17180327	0.017192231	-0.32818845	-0.2728286	-0.36783877	0.39169666	-0.10159835	-0.24895917	-0.28735694	-0.0008551821
-0.349085	-0.08110337	0.07640675	-0.11791085	-0.35099313	0.0063524446	0.46079668	-0.47783187	-0.0018232756	0.09461837	-0.007803609	-0.05471062	0.5542897	-0.29140893	0.05271526	0.48704317
-0.11231288	0.27288264	-0.4657192	-0.31714335	0.10422916	-0.34926873	-0.18603854	0.25701272	0.40075627	0.23366338	0.3187062	-0.016009329	-0.25490713	0.3444526	0.044363245	-0.512486
0.6746709	-0.08499005	0.039695144	0.09739517	-0.10299938	0.032946646	-0.38530633	1.1245496	-0.14566025	-0.26617733	-0.5671908	0.3576769	-0.10610461	0.23427407	-0.71487045	-0.36009264
-0.14304693	0.27336118	-0.31379884	-0.5284177	-0.9079056	-0.4583343	0.7211407	0.12921831	0.5290964	0.5736697	0.114673994	-0.21174961	0.72375035	0.17869556	0.29505113	0.2887373
-0.7026682	0.5898726	-0.552239	-0.6936902	-0.46950275	-0.6288069	0.78675956	-0.32672027	0.60864127	0.5375766	0.44559625	-0.3892988	0.9047905	0.30273065	0.2339137	0.23788024
-0.8972797	1.2920454	-1.1700147	-1.3771062	-1.1670176	-1.3132584	1.4081826	-0.07844315	1.2774734	1.128088	0.76611626	-1.0559431	1.4937352	1.2344354	0.6044015	0.5777394
0.72399634	-0.43659443	0.43021598	0.40088272	-0.32847682	0.42509678	-0.15328406	0.66842145	-0.373662	-0.383112	-0.6185241	0.515012	-0.13196097	-0.3035397	-0.59835374	0.2859975
-0.6382804	0.8727163	-0.89946645	-0.4769655	1.0966645	-0.7895435	-1.2093055	0.06094569	0.3735572	-0.9471313	0.63555926	-0.45988116	-0.6185186	1.0163187	-0.9341004	-1.0938867
0.0567258	0.3266072	-0.3215948	-0.39359382	-0.39763957	-0.44086134	0.34914437	0.34334344	0.39516214	0.34695578	0.009881498	-0.12709275	0.4367031	0.36342695	-4.899144e-05	-0.056866113
-0.19274399	-0.1502311	0.021804383	0.13039352	0.017472856	0.12956879	-0.071518324	-0.08510671	-0.058069028	0.023398044	0.09035952	0.2442885	-0.13723871	-0.085158326	0.093107246	-0.04439986
-0.5225653	-0.79769206	0.729066	0.4477753	-0.9630627	0.6359066	0.998346	-0.8331278	-0.52491385	0.3118284	-0.19229601	0.31241676	0.46832868	-0.9663048	0.7196755	0.87939024
-1.3865687	1.1243382	-1.1744213	-1.1512464	-0.9936888	-1.125707	1.2682188	-0.4880984	1.1317841	1.0727183	0.7978133	-0.50455844	1.2420286	1.1447864	0.42823538	0.65254766
0.735091	-0.3559301	0.35773978	0.31121632	-0.23178147	0.3253412	-0.26723883	0.7853341	-0.35658374	-0.3981383	-0.6626779	0.4732904	-0.12771004	-0.27106786	-0.7716379	0.22420435
-0.23770407	-0.24856511	0.34026894	0.08267562	-0.3000459	0.28049892	0.4466009	-0.5220041	-0.14688332	-0.012572787	-0.13777366	0.203147	0.42527193	-0.47740436	0.07403733	0.56651825
-0.70058167	0.7366892	-0.70676315	-0.4411317	1.0544522	-0.678592	-1.0579652	-0.36129582	0.23741774	-1.0425059	0.4373414	-0.4605341	0.022916017	0.86968786	-1.016917	-0.83104706
0.9154914	-0.6368302	0.7089261	0.8598651	0.12531093	0.7063186	-0.7290494	0.79137754	-0.831933	-0.95062566	-0.79159886	0.654274	-0.52658045	-0.52108294	-1.0115494	0.24538715
0.12630478	0.29471296	-0.22776039	-0.087774664	0.17897314	-0.27551308	-0.29112488	0.46728736	0.046765752	-0.2619847	-0.09356954	-0.051756576	0.076980375	0.42013448	-0.46034256	-0.32920226
-0.19744176	0.36009252	-0.238963	-0.026072508	0.6278083	-0.24464229	-0.67017764	-0.028124945	-0.0789307	-0.67585	0.1515733	-0.16646807	-0.051483527	0.41799754	-0.71027136	-0.51888716
0.14109762	0.11409752	-0.088205636	0.110710524	0.53584456	0.013353879	-0.66393375	0.35272935	-0.15148352	-0.551712	-0.12772001	0.10432452	-0.2900948	0.24868353	-0.7053373	-0.3461131
0.019059725	-0.507068	0.44844928	0.4109527	-0.25040278	0.45817944	0.26281634	-0.24521925	-0.42062718	0.035785213	-0.376515	0.39031312	-0.04203547	-0.5423959	0.12657888	0.40197423
0.44121578	-0.62143415	0.4980727	0.41019797	-0.24622202	0.55580294	-0.022376884	0.24893554	-0.41189197	-0.10622164	-0.56811064	0.6088488	-0.2893764	-0.57884943	-0.040081244	0.23523565
0.17970322	0.17831947	-0.13013008	-0.1266771	0.11326606	-0.20348962	-0.12728192	0.2879076	0.08456654	-0.1313443	-0.057715114	0.074135624	0.03424317	0.25694874	-0.3232343	-0.14220372
-0.13147238	0.04065857	0.033092003	-0.13199997	-0.64318836	-0.039123558	0.5977215	-0.2151729	0.03579655	0.2861066	-0.14522554	0.033400938	0.52307755	-0.20110458	0.1598045	0.46377742
-0.077088095	0.14356185	-0.4653796	-0.36213732	-0.13641447	-0.31998107	0.092774145	0.32447737	0.50312227	0.4872558	0.37236324	0.0016783975	-0.35482043	0.25620502	0.49634212	-0.45860463
-0.7663682	0.41517353	-0.29768232	-0.26343784	0.4658729	-0.42417246	-0.23473941	-0.6078503	0.1572687	-0.48712632	0.39985368	-0.30707994	0.5047728	0.32926264	-0.4279071	-0.16539413
-0.6212919	-0.07389737	0.115501985	-0.11124228	-0.63884574	0.06196937	0.7887237	-0.6859348	0.01702393	0.23133151	-0.060689494	0.04822463	0.7339759	-0.4447205	0.25490776	0.62413347
0.14306067	-0.0057548755	0.054332614	0.16966574	0.19122377	0.049324013	-0.24208213	0.07475156	-0.25336313	-0.34256247	-0.16978393	0.18580021	-0.08464268	-0.0069885305	-0.34861848	-0.13528265
0.9199265	-0.8469517	-0.3981581	-0.28197417	-1.231159	0.028661037	0.22710918	1.1706104	0.7107668	1.4099761	0.005209942	0.9191292	-1.6274694	-0.045786396	1.4484923	-0.9160888
-0.11067797	0.06195772	-0.04638005	-0.25644082	-0.4011658	-0.1378542	0.49928886	-0.28519213	0.0927602	0.108939044	-0.128896	-0.10493243	0.6833816	-0.1317386	-0.028624503	0.46512038
0.71519095	-0.4363768	0.4784897	0.39750358	-0.5378619	0.40625405	-0.0044529145	0.56412953	-0.40240252	-0.2632519	-0.66896456	0.51084447	0.0023916673	-0.3838355	-0.556487	0.50395715
-0.37171566	0.5146685	-0.5279614	-0.7952063	-0.6488056	-0.62503785	0.6806072	0.06554019	0.7294408	0.700199	0.36316973	-0.30296594	0.579343	0.3415541	0.49347588	0.12917222
0.17666444	0.015831057	0.009362232	0.0062028575	0.044426303	-0.026207525	-0.18989982	0.35588306	-0.029593712	-0.053787556	-0.09718764	0.20844966	-0.14782982	0.06657703	-0.15699388	-0.14782225
0.08793925	-0.02124431	-0.07204057	0.12036013	0.46713	0.029900514	-0.67256385	0.26315883	-0.24541031	-0.5547394	-0.18169878	0.22319563	-0.29781282	0.102242105	-0.66816664	-0.25306064
0.008180821	-0.5017669	0.4482089	0.3975465	-0.41907126	0.45024034	0.31659162	-0.28323764	-0.38162693	0.09067525	-0.33110508	0.48448864	-0.0058569857	-0.51096386	0.28677633	0.40985605
-1.3811064	1.0591549	-1.0627798	-1.1877749	-0.95876163	-1.0447781	1.2328639	-0.32874137	1.0690644	1.0395428	0.8428374	-0.5623746	1.238336	1.08733	0.39528644	0.6421377
0.14156687	0.126579	0.033498198	0.0010146014	0.25996372	-0.021383211	-0.26506305	0.17288555	-0.103218734	-0.5510072	-0.24032523	0.043681692	0.3404635	0.120746024	-0.72502404	0.00551934
-0.3156452	0.06635895	-0.03969962	0.017252257	0.31260583	-0.028676746	-0.2073289	-0.31715888	-0.11256345	-0.37793273	0.050129827	-0.045921754	0.13725586	0.08654226	-0.29076776	-0.060028553
-0.22114985	-0.31772986	0.29838383	0.22423796	-0.2880275	0.28227517	0.46245438	-0.4907967	-0.3327079	0.120357595	-0.13446613	0.2564852	0.13733438	-0.4295916	0.24781103	0.4265375
-0.15884282	-0.15199353	0.20514664	0.10769943	-0.18724108	0.1510455	0.25837573	-0.298682	-0.12803532	-0.046599537	-0.2020757	0.19473873	0.24361904	-0.2606892	-0.05166465	0.26269415
-0.51503694	0.54842645	-0.4442214	-0.4914007	0.26428062	-0.55088836	-0.15640347	-0.10488497	0.37270012	-0.19111978	0.3098736	-0.28213036	0.41632828	0.44362658	-0.36383316	-0.3256215
-1.1161829	-0.410952	0.48321113	0.30492687	-0.26553205	0.40044463	0.8210675	-1.0908123	-0.38495973	0.15265512	0.36485222	0.11592029	0.7462015	-0.77762175	0.5497011	0.68693787
-0.59243697	0.4859085	-0.4137594	-0.36168784	0.56328106	-0.3954135	-0.39399132	-0.25521424	0.26280993	-0.44928536	0.4127437	-0.22900695	0.06680829	0.43968758	-0.3905648	-0.40181428
0.33394748	-0.42594278	-0.06121596	-0.15422204	-0.6937824	0.12643717	0.43002513	0.52336097	0.32857293	0.9709051	-0.01835643	0.58929396	-0.79688776	-0.20840079	0.9610107	-0.23992431
-0.26658145	0.30402365	-0.36128166	-0.45984885	-0.015284552	-0.45414284	0.05211255	0.094739236	0.43312317	0.15649576	0.21134579	-0.142009	0.35933506	0.3107611	-0.06331117	-0.11394294
-0.039512943	-0.27856246	0.19292596	0.21949482	-0.25112036	0.1821326	0.22422002	-0.075055495	-0.17743635	0.17474078	-0.18409371	0.29610044	-0.007480959	-0.32356596	0.13018511	0.17298357
0.1903063	0.044125326	-0.15229121	-0.34700432	-1.1452116	-0.19723415	0.775087	0.25079685	0.3046817	0.69324523	-0.15059674	-0.00613891	0.37567708	-0.106680155	0.4629009	0.30676252
-0.5214683	0.4215346	-0.36380264	-0.30773857	0.33710805	-0.32474598	-0.1573562	-0.31885764	0.15386434	-0.31688306	0.32534966	-0.2581932	0.27732164	0.3316505	-0.2876789	-0.25768805
0.23661612	-0.06541517	-0.0009659816	0.18296742	0.3638754	0.04039289	-0.53090435	0.21249662	-0.20049743	-0.5527967	-0.17859408	0.1932885	-0.27737918	0.15610974	-0.5517892	-0.20544206
-0.7863356	-0.34998453	0.41502368	0.38412318	-0.07141068	0.4191416	0.3666895	-0.80251133	-0.40617922	0.0079667345	0.19222666	0.2057506	0.2481924	-0.4973286	0.33001605	0.38556555
0.53998774	-0.5756436	0.38316935	0.33936995	-0.64712703	0.4048803	0.06538184	0.38358977	-0.35898608	0.10420126	-0.4711143	0.62538415	-0.5453844	-0.43620324	-0.0027227094	0.14010368
0.25812003	-0.4246784	0.18936405	0.18580829	-0.52059156	0.26179302	0.2137961	0.1583149	-0.10999245	0.43511954	-0.23345158	0.44810864	-0.6786033	-0.30294943	0.4331358	-0.07665624
0.42961782	-0.27651858	0.17541179	0.31346944	0.16417265	0.2493964	-0.53060657	0.6037304	-0.31423885	-0.28878528	-0.44641328	0.43213072	-0.58609146	-0.06549334	-0.34847492	-0.30964956
0.14958748	0.11257044	-0.3042316	-0.3771114	-0.51090884	-0.3607486	0.36295202	0.40977022	0.36038026	0.5375377	-0.050113346	0.089829706	0.10089744	0.14856872	0.3367813	-0.11303788
-0.18285254	0.5712902	-0.81738216	-0.9689808	-1.1420068	-0.77488375	0.94170815	0.48247188	0.9231269	1.1879904	0.49325952	-0.24523942	0.50492775	0.6032767	0.98396444	-0.07638787
-0.64095336	-0.093783915	0.18071516	0.060306434	-0.00419095	0.13551325	0.31144404	-0.6408634	-0.13999201	-0.15595533	0.20444316	0.023309376	0.47268766	-0.3399707	0.0504234	0.35384214
-0.3790292	0.18712422	-0.045559067	-0.14860243	-0.08167707	-0.11430937	0.35774663	-0.44289175	0.13129453	0.0057433434	0.17210586	-0.2674826	0.58660173	0.06369581	-0.08042144	0.30796072
-0.59146225	0.4826477	-0.4670239	-0.6101459	-0.19322248	-0.4658884	0.4755011	-0.33310434	0.52318716	0.25949374	0.43229112	-0.45155522	0.7479789	0.3606616	0.14787066	0.17454162
-0.24132693	0.25106728	-0.32510984	-0.3731317	-0.15454882	-0.29010302	0.16825278	-0.03704244	0.27756485	0.11736545	0.05800321	-0.18774289	0.3824436	0.2966415	-0.047727086	-0.06759692
0.0065352498	0.02883164	-0.022046393	0.0043238346	0.1842158	-0.029656237	-0.10395933	-0.0065835672	-0.114841044	-0.28821793	-0.1719345	0.058827203	0.0769598	0.085437454	-0.37682858	-0.04724621
1.6148982	-1.2055603	-0.63736105	-0.42134637	-1.3436061	0.17255124	0.022244792	1.8386768	1.1390502	1.5943109	-0.27195078	1.3303915	-2.002525	-0.22812356	1.7091333	-1.4370307
0.7255873	-0.29371613	0.40450263	0.21229643	-0.21305053	0.23847812	-0.16965431	0.806031	-0.37030664	-0.45736602	-0.66801775	0.4250695	0.19735636	-0.22064085	-0.9878867	0.663618
0.003686536	-0.015624124	0.10226361	-0.11631923	-0.60730404	-0.015130196	0.5795313	-0.14348584	0.039711826	0.34496433	-0.12354892	0.018798329	0.4481845	-0.17571948	0.15806083	0.53881204
-1.1031632	1.0242604	-0.8900615	-0.3393313	1.3565991	-0.8824931	-1.4118395	-1.0341469	-0.10218296	-1.4257494	0.74029595	-0.66777	-0.6944938	1.1150266	-1.3135048	-1.1019588
-0.24235433	-0.051012848	0.019479712	-0.06540946	0.092753425	0.027432252	0.02588313	-0.21235146	-0.018856728	-0.17251709	0.014598396	0.13285628	0.20826934	-0.040850382	-0.102346756	0.05667025
-0.417693	0.58014303	-0.8015564	-0.39506224	0.85696375	-0.6394859	-1.1032509	0.29037598	0.2722601	-0.69819254	0.4742799	-0.19598654	-0.83068895	0.9130181	-0.70547086	-1.0361503
0.17180695	-0.4478382	-0.09019534	-0.07264334	-0.9955288	0.06137763	0.4848037	0.29024833	0.25414345	1.0988984	-0.06519211	0.61139315	-0.9725312	-0.17022257	1.0595769	-0.29518178
0.01811979	0.058492932	-0.13265774	-0.19371049	-0.2105003	-0.15939794	0.13466531	-0.026427671	0.09973274	0.010723779	-0.0950837	0.079792194	0.24454938	0.05853296	-0.16533986	0.0767018
0.14561157	-0.29327345	0.019662056	-0.03826483	-0.7778895	0.055596385	0.40197793	0.22734582	0.063966446	0.7064754	-0.17438096	0.3760431	-0.34050754	-0.28650713	0.5711995	0.03161645
-0.113335654	0.11650337	-0.16097842	-0.35982025	-0.43372795	-0.24963458	0.4573782	0.02605031	0.32956266	0.5279762	0.11950664	0.0441272	0.08919277	0.06310253	0.39142382	0.0052814414
-0.5162928	0.5508569	-0.58476555	-0.13407806	0.9086866	-0.5268429	-0.98386955	-0.07929012	0.016201917	-0.9318809	0.3126856	-0.26723412	-0.36335734	0.7278842	-0.90878296	-0.7646127
0.17318876	0.3264465	-0.2895027	-0.47272328	-0.5550837	-0.42397577	0.46825957	0.72023815	0.4072471	0.31938085	-0.07191994	-0.12045668	0.67087835	0.3709671	-0.070745826	0.4548587
-0.5195084	0.62491304	-0.7491761	-0.54914653	0.46986252	-0.6617957	-0.3364896	0.016286803	0.4697058	-0.22849017	0.5115372	-0.3940102	0.13189453	0.7694581	-0.39343998	-0.5432444
0.03256863	-0.44811943	0.33326206	0.3585869	-0.2877422	0.37895206	0.05718598	-0.03988506	-0.31266943	0.098170884	-0.16087735	0.44466642	-0.24549371	-0.4306655	0.22108312	0.19829702
-0.036706008	0.21601954	-0.58795255	-0.61305594	-0.9602678	-0.4447083	0.7027452	0.45113343	0.7210499	1.1445174	0.31073394	0.13210814	-0.25381392	0.30381435	1.024497	-0.42097703
-0.10271169	-0.037425455	0.10660758	0.14925665	0.08366047	0.08900482	-0.05171553	-0.1728225	-0.17189628	-0.16170423	0.03422862	0.12485006	-0.017140241	-0.14086613	-0.019716166	0.081574224
-0.4629995	-0.43160754	0.35876977	0.23065133	-0.29621142	0.31770292	0.40415767	-0.54573804	-0.18467163	0.22619548	-0.023569167	0.35775387	0.23145843	-0.48371106	0.46471336	0.3530927
0.22661887	0.056583896	-0.021946657	-0.01880441	0.1887668	-0.061308797	-0.4190831	0.48359868	-0.065001115	-0.43027645	-0.1887861	0.06623657	0.15270475	0.1413606	-0.7032678	0.042429462
0.7035884	-0.40654433	0.43196127	0.44941697	-0.08847588	0.41550094	-0.42428944	0.7158117	-0.47617602	-0.72020763	-0.6711988	0.434469	-0.230063	-0.26203567	-0.8551561	0.12238542
-0.23540556	0.12896773	-0.24289101	-0.14196615	0.050351866	-0.18788414	-0.037335064	-0.07927705	0.14455487	0.019565903	0.08396915	0.020904275	0.024502875	0.12441653	-0.06137937	-0.12512647
-0.058484912	-0.019962063	0.22608961	0.14090599	0.12393387	0.18460353	0.067953505	-0.4426261	-0.29962495	-0.46993235	-0.1253624	0.084545955	0.4429629	-0.24050653	-0.3893655	0.3427606
-1.0203649	0.789016	-0.78943133	-0.7185374	1.0310591	-0.8414558	-0.89006627	-0.4878752	0.3728728	-0.92704326	0.7402139	-0.53330463	-0.19572224	0.8307825	-0.86973214	-0.8258338
1.0349467	-0.81998235	0.79014635	0.95108145	-0.35325378	0.87827677	-1.0127789	1.2392155	-0.70962214	-0.31665173	-0.67133355	0.840855	-1.1006579	-0.7162934	-0.5157092	-0.01975009
-0.21392663	0.1784208	-0.14161956	-0.0733708	0.23824011	-0.105055176	-0.05965203	-0.258728	-0.016722124	-0.24473847	0.14911798	-0.064091094	0.23182267	0.096613176	-0.29767263	-0.009402034
-0.0972734	-0.014975535	-0.13667749	-0.08533506	-0.06215154	-0.0023464626	0.03639545	0.017427223	0.16622287	0.40153855	0.14579253	0.21814705	-0.37829706	0.0028088354	0.396933	-0.19931972
-0.3214294	0.15650748	-0.10103743	0.02067025	0.25419152	-0.09374502	-0.16477638	-0.16696797	0.027478732	-0.1513601	0.21380636	-0.03194291	-0.09791892	0.13417876	-0.17371617	-0.17915787
0.0093244305	0.28361735	-0.501319	-0.27091545	0.23846737	-0.35318896	-0.46282554	0.4472625	0.21344572	-0.050919063	0.10988312	0.019029131	-0.47574496	0.5073724	-0.2158946	-0.66834474
0.29726017	0.093554005	-0.14491104	-0.06828884	-0.0027713259	-0.14326401	-0.21825658	0.621495	0.047567684	-0.022552697	-0.123977765	0.13858786	-0.06476105	0.23638906	-0.27324826	-0.33018333
-0.24461465	-0.11604689	0.22757232	0.17584534	0.19165057	0.16964589	0.04037245	-0.37046134	-0.30864736	-0.39179638	-0.025648555	0.011077646	0.25860736	-0.15218042	-0.2061373	0.1948377
0.1361553	-0.10380946	0.08965865	0.121961385	0.01725906	0.13525821	-0.16103065	0.23186977	-0.22623524	-0.13302855	-0.28988343	0.30080265	-0.13668776	-0.1139158	-0.1895599	0.026002824
0.7516183	-0.24589856	0.374351	0.36743504	0.17938751	0.27784258	-0.49310577	0.8945647	-0.43061462	-0.6393638	-0.66671175	0.4739856	-0.124206394	-0.011251198	-0.98060155	-0.025092056
0.25569442	-0.2570894	0.027272541	0.19890864	0.03649863	0.08303407	-0.21977392	0.29763258	-0.12272901	0.1185284	-0.10858134	0.37810728	-0.5052296	-0.0047535254	0.01621739	-0.30040863
-0.5130767	0.56201696	-0.43096855	-0.28692138	0.8187581	-0.4527436	-0.80097777	-0.24356584	0.16140167	-0.7104847	0.39982212	-0.36684018	7.690946e-05	0.6046167	-0.7778404	-0.65724444
-1.0025959	0.8810911	-0.86104417	-0.43102747	1.2158797	-0.83518267	-1.1653289	-1.0359093	0.1687973	-1.1947182	0.65386325	-0.6530034	-0.053071436	1.0202202	-1.1402565	-0.94009364
0.19241813	0.025015112	-0.02394302	-0.006937045	0.18165001	-0.07896715	-0.34025985	0.30117667	-0.11327404	-0.37583718	-0.2767554	0.15058039	0.025118358	0.23672685	-0.5886304	-0.257728
-0.27802464	0.3683141	-0.40807098	-0.36938506	0.0678326	-0.3651293	-0.0028289533	-0.030513484	0.2961136	0.015530931	0.18329716	-0.17463839	0.35286698	0.2983959	-0.17836756	-0.209752
0.2462487	0.04344048	-0.05002005	-0.071565494	-0.17044516	-0.0025317243	0.07240446	0.25043166	-0.027080815	-0.038532596	-0.2480614	0.1359761	0.21210882	0.066369876	-0.28827608	0.002430361
-0.9237851	-0.6415148	0.662947	0.5478977	-0.30067787	0.57892007	0.7414353	-0.9665226	-0.8184947	-0.03228071	0.24954729	0.14585948	0.884522	-0.8221805	0.43048072	0.7011095
0.0047248937	0.23266852	-0.17921495	-0.17961153	0.1753488	-0.18445158	-0.074939735	0.09662948	0.103368275	-0.1667313	-0.0051899147	-0.034896	0.257926	0.22307628	-0.4342739	-0.14913072
-1.0395235	0.44067428	-0.30102363	-0.23000595	0.6138151	-0.35850927	-0.16093072	-0.78458405	0.029464733	-0.5645408	0.7318902	-0.5101956	0.44610277	0.28128576	-0.42372417	-0.09822041
-0.24371682	0.18507928	-0.09841104	-0.20925386	-0.06171992	-0.17670591	0.20041439	-0.18138896	0.14124809	0.019082798	-0.0025933073	-0.19855785	0.4778376	0.116015784	-0.017341023	0.08575699
0.045034945	-0.13872226	0.10386645	0.099218704	-0.040320717	0.12387051	0.0037788083	-0.10084224	-0.13143961	-0.10554914	-0.208766	0.17768301	0.05695336	-0.1346075	-0.10098015	0.06352238
-0.7612359	0.33367515	-0.22156207	0.0882116	0.7329282	-0.23583488	-0.5840575	-0.5779415	-0.12948412	-0.8982235	0.45879713	-0.311282	0.051101368	0.36968422	-0.62794894	-0.30102727
-0.42330614	-0.32694364	0.404605	0.33140364	-0.03910416	0.3270204	0.26436886	-0.5535618	-0.33710515	-0.09762594	-0.063056864	0.41106585	0.20586419	-0.54495317	0.12955455	0.34726486
-0.2730449	0.49470297	-0.576456	-0.55751204	0.3274492	-0.576593	-0.19267659	0.15793885	0.52913713	0.0009949	0.32771713	-0.29477412	0.15105334	0.6577478	-0.26090375	-0.5419066
-0.20311165	-0.052164096	0.15719968	0.13626629	0.106498376	0.12509601	0.00020895978	-0.38446915	-0.1964207	-0.25896004	-0.104579255	0.12405069	0.2681307	-0.10251683	-0.28331065	0.17161748
-0.30886358	-0.22347338	0.1487577	0.08380996	-0.10228461	0.09263866	0.34725153	-0.47261602	-0.14463365	0.18409568	-0.036660742	0.15970767	0.1912522	-0.41027325	0.28867534	0.22421268
1.5209922	-1.0729495	-0.6931208	-0.21937568	-1.1525515	0.10356956	-0.1888079	1.7525945	0.8395653	1.3576916	-0.27224326	1.0449281	-1.5780308	-0.18506663	1.3302286	-1.5810375
0.20132872	-0.085513346	0.058998633	-0.083967194	-0.3513196	0.037691902	0.2142429	0.1866732	0.03789753	0.26626134	-0.17436254	0.273484	0.08564648	-0.13875751	0.0925146	0.10941003
0.43039703	-0.4750316	0.48325562	0.5722198	-0.10521962	0.44590765	-0.112081304	0.14866848	-0.5505986	-0.50524783	-0.51985717	0.32702568	-0.21664025	-0.40734047	-0.43466473	0.3555558
0.229674	0.047648035	-0.15041596	-0.38005546	-0.78178173	-0.17078093	0.6177207	0.39157024	0.2849544	0.5926297	-0.13709673	0.103679195	0.39576992	-0.12769416	0.26474565	0.3206107
0.7255553	-0.56819654	0.59256434	0.6118664	-0.24095683	0.58150595	-0.3346062	0.48482606	-0.61455697	-0.3122125	-0.7322735	0.58523464	-0.4444743	-0.5589544	-0.48885292	0.32391208
-0.11570556	0.29148942	-0.31999925	-0.07467188	0.6571784	-0.31344065	-0.68289644	0.06577225	0.035065547	-0.56804633	0.13655211	-0.10127537	-0.020537226	0.4612042	-0.6534802	-0.5199379
-0.08065292	0.29983225	-0.2781038	-0.22433408	0.09835586	-0.33395934	-0.08369034	0.02385337	0.11011275	-0.09577551	0.014921013	-0.12962592	0.19669983	0.25654724	-0.315688	-0.15937182
0.079053916	-0.056227814	0.14251766	0.25377345	0.31684822	0.2071054	-0.3298692	0.037789058	-0.36820698	-0.5243019	-0.18292488	0.17595543	-0.11956954	-0.050479885	-0.5090048	-0.08027245
-0.6762462	0.5954943	-0.46087533	-0.5430096	0.06261026	-0.5720905	0.1632824	-0.5908328	0.41025636	-0.10416447	0.47293177	-0.48826206	0.8480309	0.38548627	-0.28181145	0.16171123
-0.25334078	0.16928054	-0.1450147	-0.34298155	-0.38250384	-0.20576261	0.46318418	-0.13671918	0.28703785	0.33753273	0.111004695	-0.20275983	0.48696747	0.048565492	0.2523334	0.15363577
-0.07326915	0.35597172	-0.24718384	-0.260209	0.022842867	-0.34346387	0.073997684	-0.013650884	0.17285597	-0.30063593	-0.0795464	-0.1654888	0.6803257	0.29444495	-0.5411001	0.14039935
-0.3961716	0.6198568	-0.6779087	-0.8404855	-0.78216064	-0.70493793	0.8986332	0.3292924	0.8208746	0.72570723	0.27682522	-0.14955261	0.8395895	0.4928844	0.29484186	0.32260245
0.09698053	0.27505332	-0.27692667	-0.34658292	-0.4420507	-0.37850955	0.4105936	0.31677294	0.29617	0.16636693	-0.049820982	-0.16237225	0.53753877	0.2960915	-0.11770768	0.17473312
0.21581562	-0.3449313	0.28869724	0.20435302	-0.57412064	0.32036838	0.3430367	0.010331512	-0.2585681	0.12839809	-0.3161264	0.3053159	0.052602492	-0.4280778	0.052359156	0.3787244
0.31269467	0.18488756	-0.43298396	-0.54512537	-0.63788074	-0.4434816	0.4561684	0.63589364	0.4696301	0.65829194	-0.0010173913	0.0895688	0.055791534	0.38242325	0.38647428	-0.23863529
-0.71377873	0.6937722	-0.646584	-0.014750913	1.1665168	-0.58893013	-1.2513548	-0.63301283	-0.29569453	-1.2062148	0.48071954	-0.3649142	-0.78304124	0.89983416	-1.144866	-0.96451366
-0.1063287	-0.091239884	0.1855462	0.1385685	0.017031526	0.15714973	0.14464568	-0.3428291	-0.15167595	-0.25600913	-0.11528291	0.05088276	0.30957875	-0.21947278	-0.1713313	0.3029319
-0.44617224	-0.48356137	0.12431949	-0.212902	-1.0348239	0.23817982	0.8694011	-0.31868917	0.27787557	1.1023136	0.40311694	0.3444968	-0.03934845	-0.5398827	1.2559186	0.31071764
-0.11136846	-0.027416682	-0.027633764	0.041513316	0.18947497	0.05158073	-0.08705254	-0.14214803	-0.050088834	-0.1301131	-0.037722047	0.105818115	2.3167602e-05	0.034671307	-0.17591605	-0.09575235
0.022572704	-0.33181533	0.37127355	0.24610221	-0.46676484	0.37507534	0.4437474	-0.2875185	-0.32315272	0.126302	-0.3042913	0.2562782	0.15635678	-0.50402015	0.11471955	0.51006925
0.94415283	-0.73982334	0.944705	0.96078396	0.34011757	0.90920204	-0.7898748	0.59658426	-0.9917557	-1.1724894	-0.82592875	0.7091416	-0.5884013	-0.7756313	-1.0997843	0.45801705
-1.3772081	-0.41821405	0.53679675	0.12634446	-0.48999107	0.41411445	1.0984035	-1.2437884	-0.61383754	0.5802507	0.69695115	-0.0010675548	1.1655823	-0.9292481	0.874915	0.78084546
0.18496934	0.3256837	-0.5670763	-0.43531013	-0.06122413	-0.40781778	-0.21758693	0.7890017	0.4656728	0.2951875	0.14539164	-0.054551803	-0.2978459	0.53473526	0.13109477	-0.6185356
-0.3593216	0.26873255	-0.2472599	-0.2901871	0.05699107	-0.31011897	0.2008723	-0.3458632	0.17520069	-0.040187757	0.18233164	-0.2922657	0.54012114	0.22716825	-0.19318296	0.0764453
-0.117721245	0.30919787	-0.2976148	0.03979589	0.6412229	-0.23109257	-0.72705394	0.06838967	-0.08034701	-0.4512318	0.3194556	-0.034888692	-0.52073824	0.44944194	-0.44712666	-0.62339205
0.021619253	-0.09473944	0.09256262	0.08128446	-0.2305073	0.088884756	0.17920916	-0.11621715	-0.07975348	0.03581624	-0.08453936	0.1912941	0.07898402	-0.2608608	0.08171652	0.24613424
-0.72620386	0.11457294	-0.054789595	-0.21297477	-0.3160051	-0.14556369	0.64789534	-0.67578226	0.12930429	0.1301063	0.2620466	-0.2812812	0.8243603	-0.19220224	0.22522353	0.44285655
-0.21061467	0.2595773	-0.18021303	-0.35176438	-0.20723937	-0.2766354	0.26436886	-0.10745933	0.25142512	0.14221239	0.15548809	-0.18344821	0.42184657	0.13908418	-0.02632677	0.06531982
-0.42087325	-0.66616946	0.47279638	0.29810914	-0.8076141	0.44586524	0.69861513	-0.5035596	-0.31995374	0.5713252	0.0721364	0.30422276	-0.021852717	-0.6908471	0.75671464	0.44711956
0.42832112	-0.5402481	0.57420665	0.52400666	-0.42792505	0.54295444	0.064049736	0.10505453	-0.53955126	-0.3718543	-0.5058468	0.4934572	-0.16155365	-0.48912966	-0.2485028	0.47435772
-0.5576492	-0.24177532	0.10568885	0.24423285	-0.034350302	0.29195985	0.17936802	-0.4352684	-0.19852813	0.25910354	0.39321122	0.19503327	-0.3411561	-0.31087455	0.5094374	0.115598656
0.5860128	-0.35116154	0.45200196	0.58425134	0.18739611	0.4197251	-0.5571012	0.55795306	-0.54170585	-0.7726263	-0.5593711	0.46529335	-0.37318078	-0.17521696	-0.8094442	-0.033685632
0.97467595	-0.8209627	0.88709927	0.9073885	-0.1720254	0.81841546	-0.67762595	0.80182594	-0.8439172	-0.8448786	-0.8296437	0.7106309	-0.65277004	-0.67160815	-0.8945249	0.41654134
-0.94973385	-0.8133436	0.8288148	0.7332481	-0.57982683	0.7669726	0.82954186	-1.0031831	-0.9021326	0.018293427	0.12707987	0.3433999	0.7034576	-1.0082822	0.62552845	0.76110405
0.4470527	-0.26513353	0.29289374	0.41887537	0.33049366	0.3231786	-0.51878846	0.2955096	-0.48761505	-0.63719976	-0.44794658	0.31496882	-0.26590422	-0.10042906	-0.64481115	-0.11272015
0.45257467	-0.056236755	-0.020233998	0.006979196	-0.16323282	-0.017746838	-0.104870625	0.6870154	-0.03214183	0.05586972	-0.2174516	0.2826815	-0.31749454	0.09318452	-0.0911239	-0.30945924
0.47003788	-0.241328	0.24325913	0.33965892	0.05383185	0.30239055	-0.27326953	0.47749603	-0.39416003	-0.42877308	-0.4575152	0.2643512	-0.2471721	-0.09465717	-0.57452106	-0.02538931
0.31199184	-0.37068662	0.3123971	0.18376045	-0.4429881	0.2552527	0.078659855	0.12272785	-0.23151915	-0.110238716	-0.4794633	0.43551365	0.08725804	-0.34979516	-0.27974254	0.30676877
-0.28932077	0.23854133	-0.3461745	-0.32229495	0.16235912	-0.31968245	-0.10136982	-0.06182421	0.2526112	0.009368771	0.22110571	-0.14683539	0.13496733	0.24061237	-0.17375775	-0.22871327
-0.5087678	0.87634027	-0.915322	-1.0310713	-0.8690689	-0.95559406	1.0231123	0.2667471	1.0919108	1.0235319	0.5769407	-0.6643454	0.82585776	0.8189619	0.7529011	-0.0042803525
-0.3793125	0.41873738	-0.5896254	-0.2759758	0.655733	-0.486261	-0.7228068	-0.008943472	0.20523953	-0.3638062	0.4164178	-0.10163605	-0.60510963	0.5133423	-0.46321234	-0.7413098
-0.4308798	0.5263723	-0.6416696	-0.38079822	0.5710091	-0.53432906	-0.64546096	0.08409702	0.3087982	-0.3884474	0.39489648	-0.11091012	-0.27351132	0.5876164	-0.49255374	-0.7169329
-0.16804226	0.5648245	-0.8485094	-0.64709723	0.5387354	-0.7163244	-0.7414408	0.75000435	0.6100051	-0.14388	0.47529995	-0.112747155	-0.63836086	0.8291414	-0.23739997	-1.1045697
0.4506979	-0.3248758	0.100705795	0.029618524	-0.45404628	0.088770255	0.15132272	0.55037236	-0.054025743	0.19225411	-0.40887898	0.34099838	-0.14940622	-0.15102364	0.0052810125	0.11242626
-0.29654923	0.41285732	-0.43855256	-0.36116785	0.3727352	-0.3961953	-0.29150996	-0.0069041494	0.33010128	-0.28992608	0.33636522	-0.30973572	0.0759936	0.49454254	-0.285463	-0.43551037
-0.02154571	0.1653032	-0.07957455	-0.030493159	0.25392196	-0.10839198	-0.22947486	-0.0070531825	-0.07013596	-0.3741012	-0.020592475	-0.1088023	0.28906885	0.11629927	-0.4634458	-0.058104273
-0.38984975	-0.03500989	0.055883143	-0.057764117	0.10324001	0.032493487	0.18615372	-0.284689	-0.04681227	0.036252614	0.05925251	0.006775025	0.22486515	-0.05224185	0.072952546	0.06665168
-0.4200714	0.055531617	-0.0052597467	-0.09644688	0.0077601923	-0.007472828	0.24917094	-0.4086217	0.019953623	0.020577103	0.1800471	-0.15660456	0.27914962	-0.027888773	0.0092949355	0.12486124
0.383412	-0.027891977	-0.05211777	0.1235396	-0.009928217	-0.022702258	-0.22429143	0.63104856	-0.049051467	-0.061755046	-0.20184988	0.24694388	-0.34381977	0.17928137	-0.1997606	-0.2591328
-0.7513115	0.63533604	-0.5650091	-0.4805107	0.5375731	-0.5592396	-0.23314816	-0.5395956	0.4033299	-0.40263498	0.49531716	-0.4707071	0.5057883	0.61811894	-0.39034176	-0.33693174
-0.17646056	-0.40963617	0.51193947	0.41092202	-0.33005518	0.43203777	0.4335812	-0.47149616	-0.49703008	-0.2951496	-0.27150875	0.29757544	0.25190136	-0.61848533	-0.03155365	0.55698305
-0.13916619	0.3084939	-0.4974217	-0.44300663	-0.031898074	-0.3630258	0.028149439	0.26657873	0.4954059	0.35119516	0.3161893	-0.08332629	-0.099757776	0.32595947	0.17904906	-0.4517545
0.002715011	0.57535446	-0.79624426	-0.8594819	-1.1114733	-0.759858	0.99321145	0.9543732	0.87592477	1.0359671	0.3284989	-0.23047277	0.57419735	0.7234614	0.7892621	-0.06819893
0.11020174	-0.384255	0.3967117	0.3955495	-0.14774406	0.36848888	0.073401034	-0.15501627	-0.42002416	-0.2593016	-0.36803705	0.2858181	0.046952542	-0.3357775	-0.18452121	0.35005808
-0.10975789	0.03198293	0.1260191	-0.07209286	-0.10678379	0.010857403	0.20836864	-0.39595893	-0.097715735	-0.24353084	-0.09150449	-0.053051673	0.66330963	-0.17551129	-0.25511137	0.46111596
-0.7375097	1.0969262	-1.247483	-1.2181178	-1.1186087	-1.2049695	1.1897273	0.47837523	1.1865829	1.2636381	0.80728877	-0.79165494	1.1243145	1.1744788	0.74638844	0.17264925
-0.3661239	0.015537346	0.1200707	-0.11721651	-0.26789305	0.0171895	0.50320584	-0.6145091	-0.07175899	-0.07293201	-0.0778126	-0.028365493	0.67295146	-0.2756748	-0.0047297385	0.5649842
-0.37933877	0.29734197	-0.3246516	-0.093904614	0.4882673	-0.30191356	-0.5002479	-0.09198875	0.12422897	-0.34063998	0.3185398	-0.16201802	-0.45105115	0.3464069	-0.3946555	-0.48389742
0.014891149	0.02906733	-0.42508835	-0.5032897	-0.86056435	-0.35582837	0.5776481	0.3910585	0.58582836	0.86588717	0.13703355	0.17011622	0.0023498363	0.083754696	0.73174894	-0.19464646
0.12092543	-0.4982255	0.4619916	0.48195788	-0.21925594	0.5118423	0.08091427	-0.13401023	-0.5063303	-0.109904945	-0.3871438	0.470024	-0.11387542	-0.5489324	-0.07590475	0.3253663
0.8440961	-0.6901141	-0.3555083	-0.35911968	-0.9597617	0.018957436	0.3073696	1.0047817	0.60677433	1.0737698	-0.13966294	0.7994163	-1.1814775	-0.16706744	1.1444193	-0.70215267
-0.06770897	0.14765097	-0.18164675	-0.24786648	-0.3315485	-0.20228787	0.34330234	0.10334508	0.25650114	0.25801218	0.019490693	-0.06433604	0.4280057	0.14362662	-0.06024289	0.1404537
-0.1670552	-0.12535915	-0.034301233	-0.16138332	-0.60960937	-0.013990717	0.51994437	-0.14669934	0.14834186	0.46687806	0.029363412	0.056923773	0.17542769	-0.16642503	0.44641164	0.18021558
-0.0036481584	-0.25827384	0.211711	0.06803301	-0.3743909	0.17972662	0.2644882	-0.07594206	-0.065081194	0.22066714	-0.1542718	0.19713452	-0.058225233	-0.20221834	0.3188319	0.22243127
0.5316223	0.007810811	-0.19794486	-0.09228722	-0.1559601	-0.15718624	-0.2896612	0.98098516	0.07984605	0.23232248	-0.25024655	0.29241616	-0.5207884	0.35131586	-0.018381126	-0.6700845
-1.0374718	0.9151323	-0.81094456	-1.0231575	-0.53750736	-0.90425014	0.8419029	-0.35809022	0.98326975	0.75526434	0.8604271	-0.911689	1.1308504	0.6398347	0.45549357	0.20463175
-0.15528505	-0.061403003	0.1308019	0.29240024	0.19736217	0.14273164	-0.23544824	-0.14991345	-0.19778739	-0.27927163	0.10590032	0.072612464	-0.10017821	-0.048564807	-0.11320876	-0.02918013
-1.2127683	-0.64314544	0.71009666	0.44433805	-0.73752147	0.6355226	1.0712086	-1.1665125	-0.63894516	0.34759232	0.4880534	0.12987527	1.1233565	-1.025087	0.8595569	0.9304202
-0.7241665	0.37601605	-0.2667338	0.13856582	0.7249487	-0.25605428	-0.7083166	-0.55504626	-0.24317028	-0.8905275	0.4076858	-0.28807157	-0.028066298	0.32581574	-0.7263016	-0.41869
0.12933482	-0.17274533	0.27959028	0.37454402	0.17923552	0.2952538	-0.1511297	-0.17938036	-0.3753537	-0.48711532	-0.19654855	0.22039683	0.0003061025	-0.22985248	-0.37498516	0.2325342
0.29762313	-0.06947865	-0.2937984	0.013820675	0.112371236	-0.06263516	-0.45447662	0.54246587	0.106314495	0.19782174	-0.01358332	0.29883108	-0.87903935	0.20512074	0.14679049	-0.6585167
-0.038185485	0.17363176	-0.25509965	-0.30686048	-0.1026632	-0.24630293	0.094475776	0.14894241	0.2587003	0.21124437	0.12759149	-0.10285793	0.30883136	0.26246613	0.05993159	-0.08651092
0.21245967	0.021367475	-0.021751838	0.040672466	-0.03149986	-0.012042925	-0.08670774	0.29004794	-0.060159165	-0.07848744	-0.2565109	0.18005891	-0.04732242	0.033202764	-0.27908096	-0.08274796
-0.17216118	-0.6357186	0.07027136	-0.13314475	-0.8482744	0.19300844	0.5657142	-0.09943306	0.17975853	0.99567246	0.18501125	0.75832903	-0.59835464	-0.50812167	1.1121844	-0.0073469863
0.36262813	-0.12899996	0.052429594	0.034011103	0.12204779	0.10167238	-0.21276975	0.41023937	-0.07714914	-0.15378176	-0.2938237	0.2516335	-0.17197558	0.12667324	-0.32902136	-0.19506906
-0.37112004	0.7537402	-1.0385005	-1.0224041	-0.29988807	-0.9501005	0.40685976	0.69869286	0.9396057	0.5787539	0.5500939	-0.46184215	0.36167738	0.8731848	0.2975892	-0.54101026
-0.8780844	-0.37576196	0.27914894	0.028161926	-0.41510227	0.2364599	0.7683935	-0.7997049	-0.14045462	0.5708852	0.3410108	0.29335636	0.4695661	-0.65571773	0.69397837	0.4497211
-0.5176459	-0.0927568	0.14254351	0.22932653	0.33878398	0.15765432	-0.06633811	-0.5534168	-0.29431155	-0.5152769	0.1478378	-0.012160484	0.23634474	-0.19642015	-0.22267386	0.1728116
1.1109812	-0.8202484	0.57350737	0.78888524	-0.3564979	0.7519855	-0.79823947	1.3039367	-0.5872396	-0.06298232	-0.6925703	0.84052277	-1.2630051	-0.5056521	-0.26366046	-0.26691777
0.13084899	-0.54671633	0.13438737	0.26950273	-0.52760875	0.32597527	0.3149883	0.1686714	0.049235616	0.87096816	0.115424395	0.6470765	-0.9119074	-0.43886733	0.9276101	-0.028245544
0.19940564	-0.17030782	0.25679418	0.17847091	-0.19579989	0.17428707	0.14674981	0.012861173	-0.26774094	-0.1549426	-0.3621941	0.21052241	0.17595252	-0.26546448	-0.23196836	0.31800538
0.15816644	0.024383744	0.026769195	-0.08878819	-0.338732	-0.017061656	0.23061368	0.049353298	-0.013630061	-0.15720165	-0.28794184	0.08029724	0.5251564	-0.01698758	-0.444954	0.5255616
0.056238536	-0.14958787	0.18985675	0.09440216	-0.09048526	0.15795961	0.07724163	0.008923442	-0.16727425	-0.19193059	-0.3533226	0.4671784	0.20115902	-0.1439649	-0.34025764	0.12412882
-0.18235408	0.5290434	-0.75822276	-0.8110597	-0.62862045	-0.68888295	0.67265	0.33230543	0.7891344	0.8854942	0.5536177	-0.24428698	0.32176217	0.4646387	0.60693127	-0.23261741
0.570808	-0.25311232	0.30131444	0.34150755	-0.13399172	0.2511318	-0.3514566	0.56234074	-0.40555406	-0.5036861	-0.49961427	0.3983125	-0.0943612	-0.19349352	-0.7057316	0.18230681
-0.8316311	0.63222766	-0.56344527	-0.3999019	0.7204232	-0.57391524	-0.68809575	-0.44778314	0.20506714	-0.68862534	0.51028126	-0.34336975	0.0008921439	0.6528117	-0.7471855	-0.6228934
-0.41546512	0.027857173	-0.20634365	-0.3418061	-0.69807667	-0.16386643	0.66521335	-0.16535006	0.29088637	0.6845821	0.3279322	0.018517967	0.26648426	-0.15010028	0.69768596	0.17716017
0.02016556	0.007921644	-0.049312048	-0.16985804	-0.59705925	-0.08936311	0.383757	0.11152257	0.10122851	0.45735183	-0.117371924	0.119269185	0.08590522	-0.051255696	0.32075897	0.15379634
0.17346452	0.074127465	-0.01765302	0.14777395	0.30472013	-0.03743159	-0.38372403	0.38070658	-0.1762224	-0.31045705	-0.09167849	0.18769686	-0.31384516	0.2228655	-0.3500438	-0.32809326
-0.5878765	0.8263454	-0.7900294	-0.9063502	-0.7076013	-0.879118	0.87293166	0.22109456	0.85049516	0.672498	0.55014324	-0.58641785	0.920952	0.78548723	0.28943104	0.13157047
-0.24880481	0.26064458	-0.4087736	-0.45129317	-0.07433945	-0.3144084	0.062186375	0.055118844	0.4710709	0.30549908	0.33553225	-0.08671343	-0.047746293	0.18832985	0.26913947	-0.26271406
1.3166778	-0.76277006	-0.72512364	-0.6695842	-1.223171	-0.2540676	0.39768362	1.7367777	1.0931073	1.4385165	-0.022277875	0.963271	-1.728702	-0.005933034	1.5116208	-1.4562805
-1.4425414	-0.68792224	0.68668145	0.28041577	-0.9853252	0.57450527	1.3481017	-1.4272642	-0.67064905	0.7472862	0.84025604	-0.44447982	1.2966757	-1.1676813	1.1149669	1.0741179
0.40686598	-0.14660281	-0.08123718	0.008866998	-0.13660507	-0.041800663	-0.29641032	0.70177746	0.032858964	0.25409254	-0.10516012	0.26407042	-0.65292764	0.1727122	0.10486702	-0.44179434
0.36756355	-0.35034734	0.3230901	0.2758693	-0.20342232	0.29876524	-0.03085142	0.34107837	-0.2327858	-0.14202453	-0.4527468	0.4464763	-0.10815153	-0.28921282	-0.25956553	0.15797888
-0.21553893	0.20124315	-0.12421591	-0.2149087	-0.18687844	-0.16576067	0.34474477	-0.31080398	0.12565425	-0.095960625	0.030649083	-0.22785719	0.7413018	0.0845157	-0.288367	0.42269874
0.27995214	-0.05585133	0.24667346	0.52229255	0.5698892	0.22218445	-0.6765163	0.1729282	-0.5762674	-0.98070097	-0.36818886	0.17061153	-0.19486497	0.049488142	-0.9196743	-0.14745761
0.1740584	-0.12856324	-0.028080145	-0.061902504	-0.107292034	-0.04359963	-0.06296996	0.28869802	-0.00030780392	0.38116455	-0.042431775	0.33186933	-0.35771668	-0.019917725	0.19212532	-0.25038704
0.33316353	-0.88252467	0.9114657	0.9963001	-0.0094103115	0.93634	-0.05698827	-0.069532886	-0.99294925	-0.6182885	-0.629397	0.6844868	-0.4015641	-0.66670626	-0.24435687	0.34073225
0.251906	-0.0032596597	-0.118337974	-0.062648855	-0.13746081	-0.11792024	-0.008212546	0.3994607	0.061366446	0.12878123	-0.09380656	0.11636433	-0.08909715	0.1021442	-0.10439376	-0.12865962
-0.11099526	0.58635265	-0.58062696	-0.785558	-1.0481751	-0.64608645	0.9097845	0.22440499	0.6294354	0.73649377	0.13455103	-0.393863	0.960708	0.45003915	0.2071401	0.42341238
0.33391646	0.036442738	0.004745849	0.021890335	0.15923412	-0.01047277	-0.30655026	0.5278515	-0.08051961	-0.24782021	-0.1666551	0.17782733	-0.12225081	0.16698132	-0.48059702	-0.19554213
-0.815692	0.29952118	-0.24443144	-0.5129624	-0.82647187	-0.36935276	1.023627	-0.5536304	0.40054163	0.59166586	0.42009073	-0.46489197	0.94348925	-0.010469976	0.5467656	0.5200884
-0.061371703	0.0860203	-0.06314438	0.004172453	0.3694046	-0.068580605	-0.29550058	-0.022311889	0.0021694547	-0.28072292	0.07461248	-0.020569699	-0.03140439	0.16254227	-0.32580534	-0.22854185
0.42188844	-0.45213506	0.5189327	0.38138008	-0.41205755	0.43643266	0.07863522	0.12965658	-0.37156308	-0.36365718	-0.545908	0.33789364	-0.016808394	-0.47776496	-0.3078136	0.45719016
0.3627473	0.1531311	-0.07721589	-0.2019964	-0.56758666	-0.1553733	0.26547742	0.57912207	0.2076024	0.23718262	-0.20187822	0.009195688	0.1840195	0.17781045	-0.041170467	0.011341841
0.18540774	0.2872775	-0.29552054	-0.26292855	-0.269652	-0.33264896	0.16014388	0.5191699	0.2451488	0.15106606	-0.07661692	0.009942073	0.23712379	0.4069894	-0.29933175	-0.1816345
-0.08693137	-0.18320587	0.27766934	0.09457241	-0.159072	0.20056717	0.20232286	-0.22076029	-0.16681108	-0.008233483	-0.209388	0.24529152	0.20945396	-0.36965927	0.010602821	0.23518184
-0.12455177	-0.5520587	0.40922463	0.45237792	-0.3170083	0.4398021	0.38523486	-0.32774195	-0.31800023	0.21713284	-0.17079066	0.44374827	-0.17895243	-0.5455729	0.40563115	0.36991662
0.4689602	-0.3226902	-0.19703889	-0.18744285	-0.80937266	0.031327814	0.33434808	0.7596312	0.29603103	0.95724446	-0.12552357	0.5443322	-0.8733388	-0.0574084	0.7858256	-0.5175343
-0.7558412	-0.20968296	0.18335867	0.044678513	-0.09703764	0.10487734	0.6024688	-0.8355303	-0.34162095	0.32023194	-0.04203973	0.34734535	0.64001393	-0.54472744	0.32468447	0.41158447
-0.40720168	0.27496094	-0.3592669	-0.27443597	0.27960432	-0.35068583	-0.22530216	-0.15073696	0.2461017	-0.16448618	0.25996843	-0.08413444	0.10333	0.29212043	-0.18307643	-0.23389135
0.5624206	-0.50532603	0.38968787	0.5306741	-0.15511416	0.45981702	-0.35669035	0.49031878	-0.49553403	-0.20412423	-0.4697518	0.54000425	-0.53311926	-0.39050868	-0.25046593	0.109578006
0.31412575	-0.15213253	0.0660548	0.26034766	0.16124286	0.13811941	-0.37481552	0.4560184	-0.16535766	-0.14280362	-0.19011985	0.25933248	-0.44409582	-0.0044344906	-0.2638277	-0.24274258
0.23111384	-0.21828656	0.2185337	0.3729004	0.20220383	0.2814547	-0.3632282	0.14570591	-0.39072216	-0.4911099	-0.33176565	0.20539649	-0.18978827	-0.171324	-0.52768314	-0.015324557
0.64779264	-0.46591845	-0.5011093	-0.5201794	-1.08041	-0.14871913	0.41510135	0.9434408	0.846025	1.2593079	0.1319135	0.7037356	-1.0312757	0.13618673	1.2789638	-0.74464655
0.5612895	-0.41140097	0.41377395	0.4003053	-0.28324345	0.39125437	-0.10044756	0.5374835	-0.35940647	-0.23523635	-0.57850575	0.3819486	-0.18947722	-0.3242073	-0.3850326	0.3391543
-1.0777848	-0.70732737	0.82285553	0.51698756	-0.6558058	0.6754974	1.0135634	-1.2172551	-0.89961	0.19332835	0.2852679	0.12863988	1.0377147	-1.0550302	0.68199414	0.8989724
0.8111813	-0.7726403	0.8871277	1.0534214	0.18447095	0.8683832	-0.9008292	0.6494644	-0.8777187	-1.1694272	-0.6988494	0.67480487	-0.7709266	-0.70284104	-1.0042541	0.2821897
-1.003689	0.7850794	-0.72129744	-0.53234863	0.8762215	-0.77103806	-0.7443054	-0.5182709	0.31764296	-0.82578516	0.7441279	-0.51552004	0.22686352	0.7947561	-0.7881492	-0.682615
-0.16820268	0.017161243	0.07258888	-0.12108712	-0.32500935	-0.0145040825	0.3656207	-0.28887218	-0.04425592	0.04361574	-0.008104062	-0.0015941063	0.4766659	-0.1587218	-0.02891217	0.40308
-0.083660215	0.5281605	-0.5046427	-0.6515226	-0.8277725	-0.5380858	0.770885	0.34946486	0.5641521	0.55343723	0.13281798	-0.39985114	0.784033	0.5303525	0.0794813	0.41027233
-0.270711	-0.4146327	0.37900692	0.30511674	-0.096862316	0.29488048	0.30522546	-0.5364124	-0.37670696	-0.12411495	-0.24115536	0.4111819	0.11224579	-0.5177544	0.099966876	0.31599274
-0.0992409	-0.14932121	0.20632932	0.46397555	0.25868806	0.22779787	-0.23924357	-0.2162255	-0.38067174	-0.35956633	-0.05495083	0.21825886	-0.32700098	-0.12601474	-0.23038523	-0.011044123
0.37299967	-0.14076012	0.16513105	0.17612731	0.11360547	0.11755022	-0.3559143	0.31653318	-0.18583561	-0.34296462	-0.34208533	0.20346303	-0.024522353	-0.076410145	-0.53600955	-0.07348529
0.19937381	-0.15035641	0.26644826	0.33716223	0.3301388	0.2579805	-0.35367328	-0.040568683	-0.38746703	-0.4751466	-0.28978434	0.24156123	-0.1092082	-0.13778718	-0.5690283	0.029103462
0.44243544	-0.62447983	-0.03513498	0.01133591	-0.7442607	0.23734206	0.20457833	0.47072428	0.22023277	0.9110608	-0.08251407	0.67088425	-0.88021743	-0.26047528	0.9027843	-0.33980867
-0.043351915	0.57373816	-0.9177685	-0.875661	-1.0260422	-0.82469136	0.88625234	0.6464601	0.9316361	1.1963935	0.53985125	-0.09327078	0.3736291	0.63256663	0.9738567	-0.18574496
0.24328211	-0.16997889	0.18252294	0.19290599	0.12788609	0.17007673	-0.27266097	0.19688562	-0.16949897	-0.35016897	-0.30623284	0.35082754	-0.117572404	0.0015715297	-0.37849697	-0.09391678
0.90270114	-0.68172354	0.6883901	0.8860601	0.3803508	0.7681995	-1.0372877	0.98695844	-0.75175774	-1.043708	-0.6335454	0.57806325	-0.8181329	-0.56726825	-0.925414	0.026429787
-0.53441787	-0.91346043	0.68883896	0.5178292	-0.7549888	0.71845204	0.8092762	-0.6606197	-0.595147	0.5898223	0.043458726	0.55012244	0.051193155	-0.8923307	0.8666645	0.54356104
-0.63364106	0.040940978	-0.031611495	-0.14117901	0.047612026	-0.015750844	0.2517322	-0.4892029	0.08308394	0.12134545	0.24929486	0.072479576	0.2531497	-0.09818076	0.12271275	0.033935525
0.074364685	0.27615663	-0.31275275	-0.2043933	0.15676133	-0.36929277	-0.31261835	0.5208991	0.26429534	-0.08133378	0.088283844	-0.12032963	0.029554045	0.4652701	-0.33347118	-0.4466984
-0.49132493	0.5330035	-0.46609172	-0.49023303	-0.004621676	-0.47583833	0.29074854	-0.22688778	0.39545044	0.1835005	0.2989219	-0.41537806	0.55788213	0.41028184	0.081975974	-0.12942666
-0.20036207	0.43719193	-0.5228068	-0.42618835	0.23736912	-0.51991874	-0.1834095	0.31969225	0.5027983	0.024439415	0.33976325	-0.2512444	0.066516764	0.5920865	-0.18340339	-0.4707155
-0.0412416	0.23651108	-0.118661195	-0.16513939	0.081148595	-0.1892367	0.011882668	-0.046635985	0.11773709	-0.18208975	0.03737469	-0.09726551	0.31482074	0.25712085	-0.25237966	-0.00042610907
-0.4001175	0.3376696	-0.51581514	-0.33499867	0.40072027	-0.44245294	-0.3660366	0.06789257	0.45064402	-0.0315918	0.5936641	-0.12768139	-0.35145843	0.49072704	-0.017544929	-0.578723
-1.1638823	-0.72707117	0.8053501	0.45768228	-0.722286	0.62073785	1.112449	-1.2037683	-0.8256899	0.39421228	0.5950345	0.012480394	1.1999578	-1.0542397	0.87741095	0.9481981
0.22619264	0.03140093	0.08446808	-0.0035026867	-0.22780837	0.004352562	0.22346754	-0.046276577	-0.079276	-0.1943768	-0.20498924	-0.06168556	0.4744455	-0.099791504	-0.38878864	0.41249853
1.424427	-1.2559328	-0.65295345	0.002039171	-0.9977485	0.3016494	-0.62786263	1.5852721	0.86021733	1.2169663	-0.38773197	1.0599235	-1.6048858	-0.31149343	1.3041049	-1.5373471
0.22990382	-0.09901711	0.12911713	0.13313961	-0.057337478	0.102766745	0.020331385	0.11017505	-0.13613981	-0.27940005	-0.28790745	0.19721717	0.23259261	-0.09654178	-0.40148506	0.17803541
-0.015027006	0.31603533	-0.31436563	-0.009960637	0.57314736	-0.35345754	-0.6310388	0.45381084	-0.007408517	-0.5702816	0.029402295	-0.104728065	-0.38830656	0.56719804	-0.64244425	-0.59618706
0.5777823	-0.22626829	0.22523579	0.14190859	-0.13299994	0.2116665	-0.30486313	0.6671219	-0.19395664	-0.081282236	-0.3683148	0.41053078	-0.20895033	-0.16058026	-0.28138074	-0.06289729
-1.1730584	1.1485807	-1.0979528	-1.2073114	-0.9273997	-1.1395943	1.168343	0.23415555	1.0794324	1.0937216	0.91977304	-0.8792776	1.1105677	1.1027628	0.65234184	0.1599957
0.6776979	-0.21473004	0.4060366	0.2762118	-0.39942953	0.2904594	-0.10069304	0.6233909	-0.40955797	-0.497726	-0.61957365	0.26354784	0.35329196	-0.39338633	-0.9491921	0.87415993
0.5377627	-0.3664194	0.5119275	0.6928848	0.3442928	0.4978439	-0.7123332	0.21190354	-0.7609781	-0.90006864	-0.45156616	0.43039224	-0.4240672	-0.26518083	-0.86449873	0.1694458
0.23967819	-0.26698592	0.23332664	0.14339443	-0.354387	0.2396899	0.160866	0.12527224	-0.20326567	0.16487911	-0.26187992	0.34176618	-0.079591505	-0.248561	0.102008894	0.15354848
0.2154844	-0.24710871	0.27142835	0.17608944	-0.42848063	0.16868842	0.21703447	0.08422199	-0.21714789	-0.08944339	-0.38305554	0.2588276	0.17391446	-0.31151938	-0.2607544	0.39398417
0.027678324	0.20610069	-0.29819503	-0.10277315	0.34653786	-0.29660827	-0.4657647	0.401822	0.15622745	-0.11427204	0.14135611	0.011445224	-0.22579059	0.40879503	-0.32229406	-0.5349245
-0.14429125	-0.011782969	-0.04674871	-0.018990302	0.11944801	-0.021116821	-0.12037059	-0.033585314	-0.039626084	-0.14814997	0.06451567	0.14828351	-0.01725599	0.027928691	-0.21234174	-0.068627134
-0.082079254	0.07174378	-0.18425761	-0.06019035	0.12949806	-0.0625215	-0.14350106	0.16058859	0.087743334	0.023750765	0.041947085	0.13873278	-0.26080233	0.14173882	-0.07053506	-0.3023551
-0.027136657	-0.5923445	0.6891919	0.60744053	-0.32940042	0.61518276	0.2862557	-0.4726032	-0.5984177	-0.27714083	-0.3703925	0.46167508	0.0575837	-0.77209294	-0.036894403	0.5895248
-0.72568893	-0.0730818	0.11880303	-0.032255534	-0.5426666	0.07494092	0.7347962	-0.5404939	0.0152389	0.28457287	0.3061788	-0.32509407	0.7789348	-0.3260618	0.4288528	0.41358918
-0.657609	0.31421286	-0.37098736	-0.5777231	-0.3828882	-0.430628	0.6653455	-0.40985772	0.5050422	0.39381456	0.4471252	-0.37351227	0.7854228	0.0034278806	0.3092032	0.3396169
0.3797363	-0.2493864	0.22227494	0.5138236	0.29728073	0.27881366	-0.5980308	0.49044535	-0.42708543	-0.3365087	-0.32834357	0.41397572	-0.6849903	-0.16138639	-0.3444687	-0.26921
0.19241354	-0.45840102	0.41745386	0.41828218	-0.033519585	0.4449644	-0.007031997	-0.03554016	-0.3998236	-0.122400135	-0.38291842	0.4981914	-0.21230997	-0.47429764	-0.09894101	0.17718244
0.0019476918	0.022301625	-0.051414955	-0.015014488	0.051044688	-0.08136774	0.034476522	-0.02929499	-0.003698871	0.010880625	-0.048522506	0.029727202	0.10704668	0.025033167	-0.06537886	-0.032346733
0.9677475	-0.6493415	0.7396418	0.7658353	0.17026733	0.6769146	-0.6414759	0.78343743	-0.75118923	-0.91729945	-0.8127328	0.7208188	-0.4749553	-0.5684877	-1.0058773	0.44974262
-0.13837793	0.2778048	-0.3940373	-0.023535494	0.6441753	-0.32042092	-0.75284755	0.27396196	0.03489579	-0.4553287	0.21420258	-0.10069338	-0.5274685	0.5626146	-0.49571934	-0.70921046
-0.33924547	0.3450594	-0.41650718	-0.4126328	0.19010736	-0.45067304	-0.03621467	-0.09630105	0.30073974	-0.031550705	0.26717946	-0.21633828	0.3007773	0.40930587	-0.19147749	-0.2428245
-0.060818236	-0.048710503	0.123257756	0.24982466	0.24623552	0.090381265	-0.22664651	-0.2816853	-0.26235658	-0.42615113	-0.22018889	0.15622225	0.10436509	-0.16915804	-0.47978216	0.078922644
-0.14443393	-0.60922855	0.55500257	0.45211038	-0.750707	0.5603301	0.5823207	-0.41559082	-0.45110932	0.18578795	-0.30955726	0.3817338	0.1158227	-0.71915287	0.35490677	0.6843489
-0.1221726	0.27976573	-0.14043988	0.12975834	0.6418389	-0.18101493	-0.67271525	-0.12866148	-0.18061931	-0.7405147	0.051377885	-0.034908492	-0.0051506083	0.3227008	-0.7261246	-0.36690953
1.4103138	-1.041951	-0.9589621	-0.61964846	-1.1507831	-0.22549094	0.06969945	1.6939778	1.1550819	1.306357	0.023867104	0.9630521	-1.609294	0.00693677	1.3889301	-1.6102483
